{"learner":{"attributes":{"best_iteration":"49","best_score":"0.7099050181323069"},"feature_names":["loan_amnt","int_rate","annual_inc","dti","fico_range_low","fico_range_high","revol_util","open_acc","pub_rec","installment","emp_length","term_36 months","term_60 months","grade_A","grade_B","grade_C","grade_D","grade_E","grade_F","grade_G","home_ownership_MORTGAGE","home_ownership_OWN","home_ownership_RENT","verification_status_Not Verified","verification_status_Source Verified","verification_status_Verified","sub_grade_te","purpose_te","addr_state_te"],"feature_types":[],"gradient_booster":{"model":{"cats":{"enc":[],"feature_segments":[],"sorted_idx":[]},"gbtree_model_param":{"num_parallel_tree":"1","num_trees":"80"},"iteration_indptr":[0,1,2,3,4,5,6,7,8,9,10,11,12,13,14,15,16,17,18,19,20,21,22,23,24,25,26,27,28,29,30,31,32,33,34,35,36,37,38,39,40,41,42,43,44,45,46,47,48,49,50,51,52,53,54,55,56,57,58,59,60,61,62,63,64,65,66,67,68,69,70,71,72,73,74,75,76,77,78,79,80],"tree_info":[0,0,0,0,0,0,0,0,0,0,0,0,0,0,0,0,0,0,0,0,0,0,0,0,0,0,0,0,0,0,0,0,0,0,0,0,0,0,0,0,0,0,0,0,0,0,0,0,0,0,0,0,0,0,0,0,0,0,0,0,0,0,0,0,0,0,0,0,0,0,0,0,0,0,0,0,0,0,0,0],"trees":[{"base_weights":[8.665078E-4,-6.714142E-1,5.179385E-1,-9.814119E-1,-3.7175792E-1,3.419772E-1,8.392858E-1,-1.1542583E0,-6.920407E-1,-6.22049E-1,2.9823532E-2,-1.0331109E-1,4.8419374E-1,7.142852E-1,1.1341386E0,-6.362796E-2,-4.6260115E-2,-8.190079E-3,-4.3223433E-2,-1.0428752E-2,-3.5693377E-2,-1.5513824E-2,6.3062194E-3,-1.7906893E-2,6.5710447E-3,2.7339397E-2,7.1939304E-3,2.207224E-2,4.0663537E-2,6.0554143E-2,4.115477E-2],"categories":[],"categories_nodes":[],"categories_segments":[],"categories_sizes":[],"default_left":[0,0,0,0,0,0,0,0,0,0,0,0,0,0,0,0,0,0,0,0,0,0,0,0,0,0,0,0,0,0,0],"id":0,"left_children":[1,3,5,7,9,11,13,15,17,19,21,23,25,27,29,-1,-1,-1,-1,-1,-1,-1,-1,-1,-1,-1,-1,-1,-1,-1,-1],"loss_changes":[3.5710576E3,4.145105E2,3.280553E2,1.0896777E2,2.2844028E2,2.3777264E2,7.489038E1,3.6012085E1,7.483508E1,5.300348E1,2.8648777E1,5.44508E1,6.0532227E1,3.8669434E1,1.3597412E1,0E0,0E0,0E0,0E0,0E0,0E0,0E0,0E0,0E0,0E0,0E0,0E0,0E0,0E0,0E0,0E0],"parents":[2147483647,0,0,1,1,2,2,3,3,4,4,5,5,6,6,7,7,8,8,9,9,10,10,11,11,12,12,13,13,14,14],"right_children":[2,4,6,8,10,12,14,16,18,20,22,24,26,28,30,-1,-1,-1,-1,-1,-1,-1,-1,-1,-1,-1,-1,-1,-1,-1,-1],"split_conditions":[1.0863757E-1,-7.543009E-1,1E0,4.9855772E-1,5.712532E-1,-7.459189E-1,9.148256E-1,-1.0772817E0,-5.663903E-2,-9.757825E-1,-8.061222E-1,7.098788E-1,2.6306304E-1,-9.6227443E-1,-7.3600596E-1,-6.362796E-2,-4.6260115E-2,-8.190079E-3,-4.3223433E-2,-1.0428752E-2,-3.5693377E-2,-1.5513824E-2,6.3062194E-3,-1.7906893E-2,6.5710447E-3,2.7339397E-2,7.1939304E-3,2.207224E-2,4.0663537E-2,6.0554143E-2,4.115477E-2],"split_indices":[1,1,19,3,3,3,3,1,5,5,7,1,5,3,5,0,0,0,0,0,0,0,0,0,0,0,0,0,0,0,0],"split_type":[0,0,0,0,0,0,0,0,0,0,0,0,0,0,0,0,0,0,0,0,0,0,0,0,0,0,0,0,0,0,0],"sum_hessian":[1.027095E4,4.465174E3,5.805777E3,2.193598E3,2.271576E3,3.752869E3,2.052908E3,1.3714304E3,8.2216736E2,1.3990502E3,8.725258E2,9.085183E2,2.8443503E3,1.4441105E3,6.087973E2,9.013519E2,4.7007852E2,2.0280797E2,6.193594E2,2.5482106E2,1.144229E3,1.9205049E2,6.8047534E2,4.3536127E2,4.7315707E2,2.4019526E3,4.4239774E2,3.858968E2,1.0582137E3,4.857431E2,1.2305423E2],"tree_param":{"num_deleted":"0","num_feature":"29","num_nodes":"31","size_leaf_vector":"1"}},{"base_weights":[-1.2691056E-2,-6.613513E-1,4.6497008E-1,-1.1337187E0,-4.6767616E-1,2.9064158E-1,7.5508165E-1,-6.84073E-1,-1.2421503E0,-6.7685896E-1,-1.1781016E-1,-1.4311329E-1,4.3806973E-1,6.484686E-1,1.0350765E0,-5.548301E-2,-2.563832E-3,-6.551566E-2,-4.446045E-2,-4.4702943E-2,-2.5305146E-2,1.172892E-2,-1.37785375E-2,-3.8639325E-4,-2.2238186E-2,2.9939322E-2,1.02579845E-2,-5.6767636E-3,3.3582445E-2,5.6987774E-2,4.0078323E-2],"categories":[],"categories_nodes":[],"categories_segments":[],"categories_sizes":[],"default_left":[0,0,0,0,0,0,0,0,0,0,0,0,0,0,0,0,0,0,0,0,0,0,0,0,0,0,0,0,0,0,0],"id":1,"left_children":[1,3,5,7,9,11,13,15,17,19,21,23,25,27,29,-1,-1,-1,-1,-1,-1,-1,-1,-1,-1,-1,-1,-1,-1,-1,-1],"loss_changes":[3.1560671E3,3.9467212E2,2.9646753E2,6.0360107E1,2.2426337E2,2.3449524E2,6.504028E1,6.6233955E1,2.3139893E1,7.068927E1,6.3896835E1,3.8005726E1,1.0230371E2,2.828363E1,1.3883789E1,0E0,0E0,0E0,0E0,0E0,0E0,0E0,0E0,0E0,0E0,0E0,0E0,0E0,0E0,0E0,0E0],"parents":[2147483647,0,0,1,1,2,2,3,3,4,4,5,5,6,6,7,7,8,8,9,9,10,10,11,11,12,12,13,13,14,14],"right_children":[2,4,6,8,10,12,14,16,18,20,22,24,26,28,30,-1,-1,-1,-1,-1,-1,-1,-1,-1,-1,-1,-1,-1,-1,-1,-1],"split_conditions":[6.888609E-2,-1.1352526E0,1.1852403E0,-5.663903E-2,5.712532E-1,-6.957245E-1,9.537696E-1,5.574064E-1,8.882916E-1,-5.820445E-1,-4.562666E-1,-2.964156E-1,-5.761549E-1,-1.578462E0,-9.757825E-1,-5.548301E-2,-2.563832E-3,-6.551566E-2,-4.446045E-2,-4.4702943E-2,-2.5305146E-2,1.172892E-2,-1.37785375E-2,-3.8639325E-4,-2.2238186E-2,2.9939322E-2,1.02579845E-2,-5.6767636E-3,3.3582445E-2,5.6987774E-2,4.0078323E-2],"split_indices":[1,1,1,4,3,3,3,3,2,1,4,4,4,0,4,0,0,0,0,0,0,0,0,0,0,0,0,0,0,0,0],"split_type":[0,0,0,0,0,0,0,0,0,0,0,0,0,0,0,0,0,0,0,0,0,0,0,0,0,0,0,0,0,0,0],"sum_hessian":[1.0184132E4,4.318821E3,5.865311E3,1.2544369E3,3.064384E3,3.6650051E3,2.200306E3,2.4515076E2,1.00928613E3,1.9171792E3,1.1472048E3,9.297058E2,2.7352993E3,1.5959395E3,6.043664E2,1.461225E2,9.902826E1,8.436425E2,1.656436E2,8.419685E2,1.0752107E3,3.5461572E2,7.925891E2,6.4240845E2,2.8729733E2,1.6175549E3,1.1177445E3,4.7000427E1,1.5489391E3,4.146184E2,1.8974797E2],"tree_param":{"num_deleted":"0","num_feature":"29","num_nodes":"31","size_leaf_vector":"1"}},{"base_weights":[2.209888E-3,-4.7720772E-1,5.482482E-1,-9.228447E-1,-2.2927928E-1,3.1991747E-1,7.116208E-1,-1.1407254E0,-6.818382E-1,-4.0342978E-1,8.6822554E-2,4.2908198E-1,-1.24558076E-1,7.7904403E-1,3.1933042E-1,-6.844155E-2,-5.2209716E-2,-1.2174922E-2,-4.2389255E-2,-3.1725146E-2,-9.512313E-3,2.1465162E-2,-3.426607E-3,1.4963979E-2,3.196731E-2,-2.539969E-2,7.834586E-3,3.4691032E-2,4.8914388E-2,-8.033833E-3,2.4747485E-2],"categories":[],"categories_nodes":[],"categories_segments":[],"categories_sizes":[],"default_left":[0,0,0,0,0,0,0,0,0,0,0,0,0,0,0,0,0,0,0,0,0,0,0,0,0,0,0,0,0,0,0],"id":2,"left_children":[1,3,5,7,9,11,13,15,17,19,21,23,25,27,29,-1,-1,-1,-1,-1,-1,-1,-1,-1,-1,-1,-1,-1,-1,-1,-1],"loss_changes":[2.679534E3,6.0198193E2,1.782821E2,1.0151404E2,1.9289362E2,9.698509E1,7.3510376E1,2.1065674E1,6.7254425E1,1.11163055E2,6.628764E1,4.3587585E1,4.2642235E1,3.971704E1,3.470028E1,0E0,0E0,0E0,0E0,0E0,0E0,0E0,0E0,0E0,0E0,0E0,0E0,0E0,0E0,0E0,0E0],"parents":[2147483647,0,0,1,1,2,2,3,3,4,4,5,5,6,6,7,7,8,8,9,9,10,10,11,11,12,12,13,13,14,14],"right_children":[2,4,6,8,10,12,14,16,18,20,22,24,26,28,30,-1,-1,-1,-1,-1,-1,-1,-1,-1,-1,-1,-1,-1,-1,-1,-1],"split_conditions":[1.6717982E-1,6.656079E-2,-1.4445072E-1,1.5585066E-1,6.5000653E-1,-2.5645283E-1,-5.663903E-2,-1.1318971E0,1.0321201E-1,1.1769054E-1,-6.960432E-1,2.723843E-1,2.1217643E-1,1.2341663E0,1.8591824E-1,-6.844155E-2,-5.2209716E-2,-1.2174922E-2,-4.2389255E-2,-3.1725146E-2,-9.512313E-3,2.1465162E-2,-3.426607E-3,1.4963979E-2,3.196731E-2,-2.539969E-2,7.834586E-3,3.4691032E-2,4.8914388E-2,-8.033833E-3,2.4747485E-2],"split_indices":[26,26,3,3,3,5,5,3,5,26,5,26,26,3,26,0,0,0,0,0,0,0,0,0,0,0,0,0,0,0,0],"split_type":[0,0,0,0,0,0,0,0,0,0,0,0,0,0,0,0,0,0,0,0,0,0,0,0,0,0,0,0,0,0,0],"sum_hessian":[1.0233809E4,5.449401E3,4.7844077E3,1.9470211E3,3.5023796E3,1.9967269E3,2.787681E3,1.02061066E3,9.264105E2,2.2580642E3,1.2443153E3,1.6030481E3,3.9367874E2,2.3779888E3,4.0969235E2,2.9956046E2,7.210502E2,2.5508485E2,6.713257E2,1.0826193E3,1.175445E3,3.8775122E2,8.5656415E2,9.926678E2,6.103804E2,1.6623698E2,2.2744174E2,1.6687072E3,7.0928156E2,1.0976499E2,2.9992734E2],"tree_param":{"num_deleted":"0","num_feature":"29","num_nodes":"31","size_leaf_vector":"1"}},{"base_weights":[-1.9473209E-3,-6.115188E-1,4.4210812E-1,-9.4530207E-1,-4.1500178E-1,1.3587874E-1,6.0442024E-1,-9.060749E-1,-1.4901565E0,-1.9513528E-1,-5.702278E-1,6.927805E-2,4.9454945E-1,6.6543144E-1,3.3542058E-1,-4.9802925E-2,-3.2141797E-2,2.017024E-2,-7.698036E-2,-1.6506957E-2,8.5391843E-4,-3.1763885E-2,-1.4535968E-2,8.772138E-3,-4.757985E-3,2.8761525E-2,-2.0349994E-2,2.7312247E-2,3.7935905E-2,1.227948E-2,3.3704717E-2],"categories":[],"categories_nodes":[],"categories_segments":[],"categories_sizes":[],"default_left":[0,0,0,0,0,0,0,0,0,0,0,0,0,0,0,0,0,0,0,0,0,0,0,0,0,0,0,0,0,0,0],"id":3,"left_children":[1,3,5,7,9,11,13,15,17,19,21,23,25,27,29,-1,-1,-1,-1,-1,-1,-1,-1,-1,-1,-1,-1,-1,-1,-1,-1],"loss_changes":[2.7710627E3,2.826161E2,2.9430603E2,3.280603E1,9.263275E1,4.9008278E1,6.3302612E1,3.4732056E1,1.0525818E1,3.2267887E1,2.8767578E1,3.0265026E1,2.3609146E1,3.4654175E1,2.1666756E1,0E0,0E0,0E0,0E0,0E0,0E0,0E0,0E0,0E0,0E0,0E0,0E0,0E0,0E0,0E0,0E0],"parents":[2147483647,0,0,1,1,2,2,3,3,4,4,5,5,6,6,7,7,8,8,9,9,10,10,11,11,12,12,13,13,14,14],"right_children":[2,4,6,8,10,12,14,16,18,20,22,24,26,28,30,-1,-1,-1,-1,-1,-1,-1,-1,-1,-1,-1,-1,-1,-1,-1,-1],"split_conditions":[6.888609E-2,-1.004404E0,7.231293E-1,2.3411264E0,-1.3656455E-1,1.3592819E0,-3.3637834E-1,4.8183548E-1,-1.335092E0,-2.226248E-1,8.3413774E-1,-2.964156E-1,1.4768672E-1,1E0,1.2691262E0,-4.9802925E-2,-3.2141797E-2,2.017024E-2,-7.698036E-2,-1.6506957E-2,8.5391843E-4,-3.1763885E-2,-1.4535968E-2,8.772138E-3,-4.757985E-3,2.8761525E-2,-2.0349994E-2,2.7312247E-2,3.7935905E-2,1.227948E-2,3.3704717E-2],"split_indices":[1,1,1,4,4,9,4,2,2,1,2,4,27,19,10,0,0,0,0,0,0,0,0,0,0,0,0,0,0,0,0],"split_type":[0,0,0,0,0,0,0,0,0,0,0,0,0,0,0,0,0,0,0,0,0,0,0,0,0,0,0,0,0,0,0],"sum_hessian":[1.023528E4,4.3135425E3,5.9217383E3,1.597087E3,2.7164556E3,2.0520447E3,3.8696934E3,1.49231E3,1.0477693E2,1.1250956E3,1.5913601E3,1.7316854E3,3.203593E2,3.1530774E3,7.166159E2,1.1100686E3,3.822415E2,2.4844623E0,1.0229247E2,6.873004E2,4.3779517E2,1.2898912E3,3.0146887E2,1.0522574E3,6.79428E2,2.9437698E2,2.5982302E1,1.387373E3,1.7657043E3,5.6774927E2,1.4886662E2],"tree_param":{"num_deleted":"0","num_feature":"29","num_nodes":"31","size_leaf_vector":"1"}},{"base_weights":[6.913433E-3,-4.385013E-1,5.0688934E-1,-8.4154767E-1,-2.1606447E-1,3.4748337E-1,7.0643944E-1,-1.0069473E0,-5.6666875E-1,-4.6261898E-1,-3.8457394E-2,1.9923285E-1,6.164619E-1,8.02457E-1,4.3255126E-1,-4.839843E-2,-7.9920195E-2,-2.8928423E-3,-3.6836132E-2,-1.1793012E-2,-3.4362663E-2,9.163889E-3,-6.827403E-3,1.4545465E-2,-3.8912762E-3,9.862754E-3,3.2731894E-2,3.5340283E-2,5.0878596E-2,3.225553E-2,9.862926E-3],"categories":[],"categories_nodes":[],"categories_segments":[],"categories_sizes":[],"default_left":[0,0,0,0,0,0,0,0,0,0,0,0,0,0,0,0,0,0,0,0,0,0,0,0,0,0,0,0,0,0,0],"id":4,"left_children":[1,3,5,7,9,11,13,15,17,19,21,23,25,27,29,-1,-1,-1,-1,-1,-1,-1,-1,-1,-1,-1,-1,-1,-1,-1,-1],"loss_changes":[2.2800444E3,4.8525195E2,1.5319482E2,8.695935E1,1.5282608E2,1.0688742E2,5.5961304E1,2.6133667E1,6.2734726E1,7.4279755E1,4.417721E1,4.4002556E1,1.5123169E1,3.187732E1,2.7778236E1,0E0,0E0,0E0,0E0,0E0,0E0,0E0,0E0,0E0,0E0,0E0,0E0,0E0,0E0,0E0,0E0],"parents":[2147483647,0,0,1,1,2,2,3,3,4,4,5,5,6,6,7,7,8,8,9,9,10,10,11,11,12,12,13,13,14,14],"right_children":[2,4,6,8,10,12,14,16,18,20,22,24,26,28,30,-1,-1,-1,-1,-1,-1,-1,-1,-1,-1,-1,-1,-1,-1,-1,-1],"split_conditions":[1.6717982E-1,6.656079E-2,3.306659E-1,4.9855772E-1,-1.4445072E-1,2.723843E-1,-5.361921E-1,2.3411264E0,2.328649E-2,-1.3656455E-1,-6.960432E-1,-2.5645283E-1,-1.3546479E0,1.3561908E0,-8.297701E-2,-4.839843E-2,-7.9920195E-2,-2.8928423E-3,-3.6836132E-2,-1.1793012E-2,-3.4362663E-2,9.163889E-3,-6.827403E-3,1.4545465E-2,-3.8912762E-3,9.862754E-3,3.2731894E-2,3.5340283E-2,5.0878596E-2,3.225553E-2,9.862926E-3],"split_indices":[26,26,3,3,3,26,4,4,4,4,4,4,0,3,0,0,0,0,0,0,0,0,0,0,0,0,0,0,0,0,0],"split_type":[0,0,0,0,0,0,0,0,0,0,0,0,0,0,0,0,0,0,0,0,0,0,0,0,0,0,0,0,0,0,0],"sum_hessian":[1.0236345E4,5.413622E3,4.822723E3,1.9242239E3,3.489398E3,2.6825618E3,2.1401614E3,1.1996873E3,7.245367E2,1.4604264E3,2.0289717E3,1.7305117E3,9.520501E2,1.5832041E3,5.569573E2,1.1279863E3,7.1700874E1,1.8183006E2,5.4270667E2,7.277967E2,7.3262976E2,6.220198E2,1.4069519E3,1.3002269E3,4.3028482E2,7.9978775E1,8.7207135E2,1.0988733E3,4.8433078E2,2.9169943E2,2.6525787E2],"tree_param":{"num_deleted":"0","num_feature":"29","num_nodes":"31","size_leaf_vector":"1"}},{"base_weights":[-1.0985019E-2,-5.377606E-1,3.9197254E-1,-8.788649E-1,-3.781216E-1,1.1170371E-1,5.318894E-1,-1.0322355E0,-7.590265E-1,-4.950498E-1,-2.2648771E-1,9.636983E-3,2.9955047E-1,4.1704538E-1,6.676518E-1,-5.474859E-2,-1.3945134E-2,-2.5869837E-2,-4.750984E-2,-2.2240013E-2,-4.228376E-2,1.4289598E-2,-1.3152455E-2,2.0156493E-2,-2.5751323E-3,3.4411076E-2,8.682516E-3,-2.035953E-2,2.1285495E-2,-7.3277555E-2,3.3560615E-2],"categories":[],"categories_nodes":[],"categories_segments":[],"categories_sizes":[],"default_left":[0,0,0,0,0,0,0,0,0,0,0,0,0,0,0,0,0,0,0,0,0,0,0,0,0,0,0,0,0,0,0],"id":5,"left_children":[1,3,5,7,9,11,13,15,17,19,21,23,25,27,29,-1,-1,-1,-1,-1,-1,-1,-1,-1,-1,-1,-1,-1,-1,-1,-1],"loss_changes":[2.1553086E3,2.3930322E2,2.2554004E2,2.498877E1,5.30701E1,3.6750435E1,5.9546753E1,2.8631592E1,3.604364E1,2.944757E1,2.4569626E1,2.992721E1,3.2903114E1,1.50373535E1,1.4326721E1,0E0,0E0,0E0,0E0,0E0,0E0,0E0,0E0,0E0,0E0,0E0,0E0,0E0,0E0,0E0,0E0],"parents":[2147483647,0,0,1,1,2,2,3,3,4,4,5,5,6,6,7,7,8,8,9,9,10,10,11,11,12,12,13,13,14,14],"right_children":[2,4,6,8,10,12,14,16,18,20,22,24,26,28,30,-1,-1,-1,-1,-1,-1,-1,-1,-1,-1,-1,-1,-1,-1,-1,-1],"split_conditions":[1.0863757E-1,-1.0772817E0,7.231293E-1,-1.444983E0,-3.783181E-1,6.824932E-1,1.31112E0,1.6654006E0,5.249724E-2,1.0846946E0,1.3094395E-1,-1.3633608E0,1.3748033E-1,1.2870316E-1,-1.7107158E0,-5.474859E-2,-1.3945134E-2,-2.5869837E-2,-4.750984E-2,-2.2240013E-2,-4.228376E-2,1.4289598E-2,-1.3152455E-2,2.0156493E-2,-2.5751323E-3,3.4411076E-2,8.682516E-3,-2.035953E-2,2.1285495E-2,-7.3277555E-2,3.3560615E-2],"split_indices":[1,1,1,1,1,7,1,2,26,9,28,6,28,28,0,0,0,0,0,0,0,0,0,0,0,0,0,0,0,0,0],"split_type":[0,0,0,0,0,0,0,0,0,0,0,0,0,0,0,0,0,0,0,0,0,0,0,0,0,0,0,0,0,0,0],"sum_hessian":[1.0151712E4,4.3997295E3,5.7519824E3,1.4012156E3,2.9985137E3,1.9159409E3,3.8360417E3,6.112791E2,7.8993646E2,1.6917239E3,1.3067898E3,1.2420974E3,6.738435E2,2.0803254E3,1.7557162E3,5.6386774E2,4.7411415E1,3.5055664E2,4.3937982E2,1.4816511E3,2.1007283E2,8.65985E1,1.2201913E3,1.6628682E2,1.0758107E3,1.6377654E2,5.10067E2,2.1162745E1,2.0591626E3,2.2414212E0,1.7534749E3],"tree_param":{"num_deleted":"0","num_feature":"29","num_nodes":"31","size_leaf_vector":"1"}},{"base_weights":[1.4444751E-2,-5.0418574E-1,4.0231618E-1,-7.50454E-1,-2.6948747E-1,1.6293608E-1,5.560102E-1,-9.419549E-1,-5.375618E-1,-4.6054614E-1,8.032133E-2,-9.647789E-2,3.5714135E-1,1.8671894E-1,6.3941324E-1,-5.1844466E-2,-3.8325977E-2,-4.7134764E-2,-1.9199042E-2,-1.3891694E-2,-3.0024538E-2,5.550004E-3,-7.108729E-2,3.221335E-3,-2.0903362E-2,1.44648375E-2,3.569902E-2,-7.102662E-2,1.0773349E-2,2.7177265E-2,4.1088954E-2],"categories":[],"categories_nodes":[],"categories_segments":[],"categories_sizes":[],"default_left":[0,0,0,0,0,0,0,0,0,0,0,0,0,0,0,0,0,0,0,0,0,0,0,0,0,0,0,0,0,0,0],"id":6,"left_children":[1,3,5,7,9,11,13,15,17,19,21,23,25,27,29,-1,-1,-1,-1,-1,-1,-1,-1,-1,-1,-1,-1,-1,-1,-1,-1],"loss_changes":[2.0608296E3,2.53156E2,2.1554932E2,8.667578E1,1.5014691E2,1.1556291E2,1.0980603E2,1.7932922E1,6.2791626E1,3.697986E1,3.6757786E1,5.08689E1,3.1547165E1,3.0753315E1,5.0447388E1,0E0,0E0,0E0,0E0,0E0,0E0,0E0,0E0,0E0,0E0,0E0,0E0,0E0,0E0,0E0,0E0],"parents":[2147483647,0,0,1,1,2,2,3,3,4,4,5,5,6,6,7,7,8,8,9,9,10,10,11,11,12,12,13,13,14,14],"right_children":[2,4,6,8,10,12,14,16,18,20,22,24,26,28,30,-1,-1,-1,-1,-1,-1,-1,-1,-1,-1,-1,-1,-1,-1,-1,-1],"split_conditions":[9.538708E-2,-7.543009E-1,8.1422645E-1,1.5585066E-1,6.5000653E-1,-4.5792636E-2,-9.882371E-1,1E0,-1.4565772E0,-1.765273E-1,2.0214245E0,-2.1649006E-1,1.4188032E0,-1.6384362E0,9.286724E-1,-5.1844466E-2,-3.8325977E-2,-4.7134764E-2,-1.9199042E-2,-1.3891694E-2,-3.0024538E-2,5.550004E-3,-7.108729E-2,3.221335E-3,-2.0903362E-2,1.44648375E-2,3.569902E-2,-7.102662E-2,1.0773349E-2,2.7177265E-2,4.1088954E-2],"split_indices":[1,1,1,3,3,3,3,22,1,5,5,5,9,6,3,0,0,0,0,0,0,0,0,0,0,0,0,0,0,0,0],"split_type":[0,0,0,0,0,0,0,0,0,0,0,0,0,0,0,0,0,0,0,0,0,0,0,0,0,0,0,0,0,0,0],"sum_hessian":[1.0242621E4,4.382455E3,5.8601665E3,2.1374436E3,2.2450115E3,2.2921611E3,3.5680054E3,1.1234517E3,1.0139919E3,1.451768E3,7.9324347E2,9.815446E2,1.3106166E3,6.5795526E2,2.91005E3,7.2579E2,3.9766165E2,2.7731647E2,7.366754E2,6.309641E2,8.208039E2,7.782738E2,1.4969641E1,6.54747E2,3.2679764E2,1.1027627E3,2.0785387E2,1.0710967E1,6.472443E2,1.9099755E3,1.00007465E3],"tree_param":{"num_deleted":"0","num_feature":"29","num_nodes":"31","size_leaf_vector":"1"}},{"base_weights":[7.907885E-3,-4.7415906E-1,3.9157948E-1,-8.168398E-1,-3.3150604E-1,-3.381353E-2,4.730235E-1,-4.62803E-1,-9.3295056E-1,-6.305388E-1,-1.7085801E-1,-2.3920916E-1,4.2605E-1,2.2844759E-1,5.759964E-1,3.5339483E-4,-3.6410835E-2,-5.2889954E-2,-3.4272775E-2,-3.7835125E-2,-1.46631915E-2,1.951694E-4,-1.5891688E-2,-2.8378932E-2,-3.9462135E-3,2.5257826E-2,-7.2205E-2,-1.6934875E-3,1.8468237E-2,2.42785E-2,3.803073E-2],"categories":[],"categories_nodes":[],"categories_segments":[],"categories_sizes":[],"default_left":[0,0,0,0,0,0,0,0,0,0,0,0,0,0,0,0,0,0,0,0,0,0,0,0,0,0,0,0,0,0,0],"id":7,"left_children":[1,3,5,7,9,11,13,15,17,19,21,23,25,27,29,-1,-1,-1,-1,-1,-1,-1,-1,-1,-1,-1,-1,-1,-1,-1,-1],"loss_changes":[1.8833767E3,2.2033386E2,1.9646051E2,5.4066284E1,1.5304211E2,8.6249985E1,1.1972302E2,4.1084618E1,3.0092407E1,4.7171143E1,5.330565E1,3.317216E1,4.2442238E1,5.2195168E1,5.5529297E1,0E0,0E0,0E0,0E0,0E0,0E0,0E0,0E0,0E0,0E0,0E0,0E0,0E0,0E0,0E0,0E0],"parents":[2147483647,0,0,1,1,2,2,3,3,4,4,5,5,6,6,7,7,8,8,9,9,10,10,11,11,12,12,13,13,14,14],"right_children":[2,4,6,8,10,12,14,16,18,20,22,24,26,28,30,-1,-1,-1,-1,-1,-1,-1,-1,-1,-1,-1,-1,-1,-1,-1,-1],"split_conditions":[1.5832692E-1,-1.1004701E0,-1.0514128E0,1.0321201E-1,-3.928268E-1,1.3525277E0,6.701273E-1,-5.844868E-1,6.093317E-1,-1.249024E-1,-1.667627E-2,6.187816E-1,-1.667627E-2,6.411594E-2,9.286724E-1,3.5339483E-4,-3.6410835E-2,-5.2889954E-2,-3.4272775E-2,-3.7835125E-2,-1.46631915E-2,1.951694E-4,-1.5891688E-2,-2.8378932E-2,-3.9462135E-3,2.5257826E-2,-7.2205E-2,-1.6934875E-3,1.8468237E-2,2.42785E-2,3.803073E-2],"split_indices":[1,1,3,5,3,1,1,2,3,1,5,1,5,3,3,0,0,0,0,0,0,0,0,0,0,0,0,0,0,0,0],"split_type":[0,0,0,0,0,0,0,0,0,0,0,0,0,0,0,0,0,0,0,0,0,0,0,0,0,0,0,0,0,0,0],"sum_hessian":[1.0180867E4,4.511777E3,5.6690903E3,1.3247468E3,3.1870298E3,9.1106415E2,4.758026E3,3.2839954E2,9.9634735E2,1.1127725E3,2.0742573E3,6.301091E2,2.8095508E2,1.4106774E3,3.3473486E3,1.18892845E2,2.095067E2,6.600912E2,3.3625613E2,8.089332E2,3.038393E2,9.4800555E2,1.1262518E3,2.0585036E2,4.242587E2,2.7025336E2,1.0701714E1,4.932506E2,9.1742676E2,2.249277E3,1.0980715E3],"tree_param":{"num_deleted":"0","num_feature":"29","num_nodes":"31","size_leaf_vector":"1"}},{"base_weights":[-9.516466E-3,-4.8462543E-1,3.3458975E-1,-6.5229094E-1,-1.9695753E-1,1.923958E-1,5.669511E-1,-8.5764974E-1,-4.776981E-1,-4.6315047E-1,9.142739E-2,-1.5283813E-1,3.110098E-1,4.8943573E-1,8.853799E-1,-5.7863694E-2,-3.7604984E-2,-5.8050852E-2,-2.2170577E-2,-1.8767448E-2,-6.019187E-2,-2.6955321E-2,7.768608E-3,-1.6839612E-2,3.3365222E-4,9.89064E-3,2.0666204E-2,2.6240367E-2,-1.1872535E-2,4.5772605E-2,-1.1569599E-2],"categories":[],"categories_nodes":[],"categories_segments":[],"categories_sizes":[],"default_left":[0,0,0,0,0,0,0,0,0,0,0,0,0,0,0,0,0,0,0,0,0,0,0,0,0,0,0,0,0,0,0],"id":8,"left_children":[1,3,5,7,9,11,13,15,17,19,21,23,25,27,29,-1,-1,-1,-1,-1,-1,-1,-1,-1,-1,-1,-1,-1,-1,-1,-1],"loss_changes":[1.651511E3,2.0452771E2,1.9346057E2,9.56897E1,1.2009473E2,1.4893916E2,5.4452087E1,3.8040527E1,3.347824E1,5.24458E1,3.038302E1,2.730428E1,3.1264313E1,4.6160736E1,1.4790039E1,0E0,0E0,0E0,0E0,0E0,0E0,0E0,0E0,0E0,0E0,0E0,0E0,0E0,0E0,0E0,0E0],"parents":[2147483647,0,0,1,1,2,2,3,3,4,4,5,5,6,6,7,7,8,8,9,9,10,10,11,11,12,12,13,13,14,14],"right_children":[2,4,6,8,10,12,14,16,18,20,22,24,26,28,30,-1,-1,-1,-1,-1,-1,-1,-1,-1,-1,-1,-1,-1,-1,-1,-1],"split_conditions":[6.888609E-2,5.712532E-1,1.1852403E0,6.656079E-2,-6.7811054E-1,-6.957245E-1,1.2220504E0,-1.0643942E0,-1.0424992E0,1.2904276E0,1.3686691E-1,-1.1950729E0,6.187816E-1,2.6306304E-1,1.5576283E0,-5.7863694E-2,-3.7604984E-2,-5.8050852E-2,-2.2170577E-2,-1.8767448E-2,-6.019187E-2,-2.6955321E-2,7.768608E-3,-1.6839612E-2,3.3365222E-4,9.89064E-3,2.0666204E-2,2.6240367E-2,-1.1872535E-2,4.5772605E-2,-1.1569599E-2],"split_indices":[1,3,1,26,1,3,3,3,1,0,27,3,1,4,6,0,0,0,0,0,0,0,0,0,0,0,0,0,0,0,0],"split_type":[0,0,0,0,0,0,0,0,0,0,0,0,0,0,0,0,0,0,0,0,0,0,0,0,0,0,0,0,0,0,0],"sum_hessian":[1.0099738E4,4.24216E3,5.8575776E3,2.6792866E3,1.5628737E3,3.6349753E3,2.222602E3,1.2293701E3,1.4499166E3,8.1239166E2,7.50482E2,9.2945264E2,2.7055227E3,1.7895161E3,4.3308606E2,3.1766174E2,9.117084E2,6.770562E1,1.3822109E3,7.2764307E2,8.474855E1,6.841714E1,6.820649E2,4.311376E2,4.9831503E2,1.2858436E3,1.4196791E3,1.7067411E3,8.277499E1,4.2190536E2,1.1180697E1],"tree_param":{"num_deleted":"0","num_feature":"29","num_nodes":"31","size_leaf_vector":"1"}},{"base_weights":[-1.0746616E-3,-5.088143E-1,3.103461E-1,-6.6212773E-1,-2.6800925E-1,8.668764E-2,4.4940642E-1,-9.220429E-1,-5.14424E-1,-8.1582266E-1,-1.7090651E-1,-1.09947994E-1,3.1897062E-1,3.6268845E-1,6.7813015E-1,-7.990513E-2,-4.4263773E-2,-3.364579E-2,-1.5590322E-2,-4.594065E-2,2.647896E-2,2.2427358E-3,-1.5482773E-2,-1.4721632E-2,3.4177757E-3,2.306565E-2,6.7463787E-3,1.2907884E-2,2.4420926E-2,3.8524196E-2,2.1639768E-2],"categories":[],"categories_nodes":[],"categories_segments":[],"categories_sizes":[],"default_left":[0,0,0,0,0,0,0,0,0,0,0,0,0,0,0,0,0,0,0,0,0,0,0,0,0,0,0,0,0,0,0],"id":9,"left_children":[1,3,5,7,9,11,13,15,17,19,21,23,25,27,29,-1,-1,-1,-1,-1,-1,-1,-1,-1,-1,-1,-1,-1,-1,-1,-1],"loss_changes":[1.598499E3,1.4171136E2,1.9484888E2,8.964929E1,7.9477936E1,1.09817505E2,7.638507E1,1.9698486E1,4.7933044E1,3.1676178E1,3.8112408E1,4.286155E1,2.8810966E1,3.6720123E1,2.3705597E1,0E0,0E0,0E0,0E0,0E0,0E0,0E0,0E0,0E0,0E0,0E0,0E0,0E0,0E0,0E0,0E0],"parents":[2147483647,0,0,1,1,2,2,3,3,4,4,5,5,6,6,7,7,8,8,9,9,10,10,11,11,12,12,13,13,14,14],"right_children":[2,4,6,8,10,12,14,16,18,20,22,24,26,28,30,-1,-1,-1,-1,-1,-1,-1,-1,-1,-1,-1,-1,-1,-1,-1,-1],"split_conditions":[-6.196255E-2,4.9855772E-1,7.098788E-1,-1.0772817E0,-1.444983E0,3.592248E-1,9.148256E-1,-1.1322688E0,-3.928268E-1,2.0474002E0,-1.667627E-2,-1.895021E-1,-4.1630387E-1,1.2995259E0,-7.3600596E-1,-7.990513E-2,-4.4263773E-2,-3.364579E-2,-1.5590322E-2,-4.594065E-2,2.647896E-2,2.2427358E-3,-1.5482773E-2,-1.4721632E-2,3.4177757E-3,2.306565E-2,6.7463787E-3,1.2907884E-2,2.4420926E-2,3.8524196E-2,2.1639768E-2],"split_indices":[1,3,1,1,1,3,3,2,3,2,4,2,4,1,4,0,0,0,0,0,0,0,0,0,0,0,0,0,0,0,0],"split_type":[0,0,0,0,0,0,0,0,0,0,0,0,0,0,0,0,0,0,0,0,0,0,0,0,0,0,0,0,0,0,0],"sum_hessian":[1.0107364E4,3.842283E3,6.265082E3,2.346552E3,1.4957307E3,2.4025503E3,3.8625315E3,8.483909E2,1.4981611E3,2.2409242E2,1.2716383E3,1.3013982E3,1.1011522E3,2.802559E3,1.0599723E3,4.1569458E1,8.068215E2,8.393122E2,6.5884894E2,2.0845248E2,1.5639943E1,4.979614E2,7.7367694E2,6.392925E2,6.621057E2,6.2007104E2,4.8108115E2,1.5319575E3,1.2706017E3,7.685276E2,2.9144473E2],"tree_param":{"num_deleted":"0","num_feature":"29","num_nodes":"31","size_leaf_vector":"1"}},{"base_weights":[1.3932091E-3,-4.647651E-1,2.8779086E-1,-6.321602E-1,-2.1655944E-1,1.4834645E-1,5.384407E-1,-9.2296576E-1,-4.8263752E-1,-4.279444E-1,2.626371E-2,-6.7309774E-3,3.2057828E-1,3.9575785E-1,7.091844E-1,-3.7556604E-2,-5.6489863E-2,-2.9228006E-2,-1.5302357E-2,1.1721147E-2,-2.645287E-2,-3.8860153E-2,3.564046E-3,4.42665E-3,-1.1603584E-2,2.3873689E-2,8.095314E-3,2.4734342E-2,7.229934E-3,3.6661305E-2,-2.5160853E-3],"categories":[],"categories_nodes":[],"categories_segments":[],"categories_sizes":[],"default_left":[0,0,0,0,0,0,0,0,0,0,0,0,0,0,0,0,0,0,0,0,0,0,0,0,0,0,0,0,0,0,0],"id":10,"left_children":[1,3,5,7,9,11,13,15,17,19,21,23,25,27,29,-1,-1,-1,-1,-1,-1,-1,-1,-1,-1,-1,-1,-1,-1,-1,-1],"loss_changes":[1.3398903E3,1.5855383E2,2.172049E2,9.8716064E1,7.905304E1,1.06728264E2,5.3848938E1,2.6634949E1,2.6966766E1,5.5263733E1,2.6010872E1,4.5178513E1,4.705455E1,3.0059265E1,1.8483124E1,0E0,0E0,0E0,0E0,0E0,0E0,0E0,0E0,0E0,0E0,0E0,0E0,0E0,0E0,0E0,0E0],"parents":[2147483647,0,0,1,1,2,2,3,3,4,4,5,5,6,6,7,7,8,8,9,9,10,10,11,11,12,12,13,13,14,14],"right_children":[2,4,6,8,10,12,14,16,18,20,22,24,26,28,30,-1,-1,-1,-1,-1,-1,-1,-1,-1,-1,-1,-1,-1,-1,-1,-1],"split_conditions":[-6.196255E-2,4.7259507E-1,1.1852403E0,-1.1004701E0,-7.410504E-1,2.4931623E-1,3.306659E-1,9.4242996E-1,-2.7599487E-1,-4.9622938E-1,-1.4924213E0,-1.765273E-1,-7.759687E-1,1.4507805E-1,1.5711225E0,-3.7556604E-2,-5.6489863E-2,-2.9228006E-2,-1.5302357E-2,1.1721147E-2,-2.645287E-2,-3.8860153E-2,3.564046E-3,4.42665E-3,-1.1603584E-2,2.3873689E-2,8.095314E-3,2.4734342E-2,7.229934E-3,3.6661305E-2,-2.5160853E-3],"split_indices":[1,3,1,1,1,3,3,4,3,4,6,4,4,27,6,0,0,0,0,0,0,0,0,0,0,0,0,0,0,0,0],"split_type":[0,0,0,0,0,0,0,0,0,0,0,0,0,0,0,0,0,0,0,0,0,0,0,0,0,0,0,0,0,0,0],"sum_hessian":[1.003413E4,3.8184175E3,6.2157124E3,2.2795168E3,1.5389006E3,3.9948455E3,2.2208667E3,7.7230115E2,1.5072157E3,8.223006E2,7.1660004E2,2.102614E3,1.8922314E3,1.211657E3,1.0092097E3,4.2437006E2,3.479311E2,9.5418115E2,5.5303455E2,1.08728386E2,7.135722E2,3.7157032E1,6.79443E2,1.4782732E3,6.2434076E2,9.504318E2,9.417997E2,8.685676E2,3.4308942E2,9.782776E2,3.0932142E1],"tree_param":{"num_deleted":"0","num_feature":"29","num_nodes":"31","size_leaf_vector":"1"}},{"base_weights":[-1.442225E-2,-4.0636954E-1,2.9722008E-1,-6.2116814E-1,-2.166842E-1,-7.2495006E-2,3.697675E-1,-4.618436E-1,-8.065283E-1,-3.5157624E-1,6.5056663E-3,-5.099702E-1,9.2409536E-2,2.5359154E-1,5.5173725E-1,-3.5605825E-2,-7.885165E-3,-2.5581215E-2,-4.665112E-2,-2.7879143E-2,-1.1627416E-2,2.2588377E-3,-6.8757355E-2,-3.0586803E-2,4.1055746E-2,8.6275805E-3,-2.5275016E-2,1.8256178E-2,4.984139E-3,2.4509972E-2,3.7926648E-2],"categories":[],"categories_nodes":[],"categories_segments":[],"categories_sizes":[],"default_left":[0,0,0,0,0,0,0,0,0,0,0,0,0,0,0,0,0,0,0,0,0,0,0,0,0,0,0,0,0,0,0],"id":11,"left_children":[1,3,5,7,9,11,13,15,17,19,21,23,25,27,29,-1,-1,-1,-1,-1,-1,-1,-1,-1,-1,-1,-1,-1,-1,-1,-1],"loss_changes":[1.2212198E3,1.8029614E2,1.4941257E2,6.09422E1,7.084901E1,6.60169E1,9.829242E1,8.505188E1,3.5272156E1,3.5835876E1,4.7478558E1,3.4433212E1,3.1950584E1,4.8776962E1,2.270575E1,0E0,0E0,0E0,0E0,0E0,0E0,0E0,0E0,0E0,0E0,0E0,0E0,0E0,0E0,0E0,0E0],"parents":[2147483647,0,0,1,1,2,2,3,3,4,4,5,5,6,6,7,7,8,8,9,9,10,10,11,11,12,12,13,13,14,14],"right_children":[2,4,6,8,10,12,14,16,18,20,22,24,26,28,30,-1,-1,-1,-1,-1,-1,-1,-1,-1,-1,-1,-1,-1,-1,-1,-1],"split_conditions":[1.5832692E-1,-7.543009E-1,-1.0514128E0,1.437194E-1,5.825036E-1,6.94972E-1,1.1852403E0,3.0037612E-1,1.0321201E-1,-3.9322492E-1,1.6919745E0,1.6749035E0,-9.660179E-2,-6.1611766E-1,1.2220504E0,-3.5605825E-2,-7.885165E-3,-2.5581215E-2,-4.665112E-2,-2.7879143E-2,-1.1627416E-2,2.2588377E-3,-6.8757355E-2,-3.0586803E-2,4.1055746E-2,8.6275805E-3,-2.5275016E-2,1.8256178E-2,4.984139E-3,2.4509972E-2,3.7926648E-2],"split_indices":[1,1,3,28,3,1,1,3,5,1,3,7,5,5,3,0,0,0,0,0,0,0,0,0,0,0,0,0,0,0,0],"split_type":[0,0,0,0,0,0,0,0,0,0,0,0,0,0,0,0,0,0,0,0,0,0,0,0,0,0,0,0,0,0,0],"sum_hessian":[9.995933E3,4.427384E3,5.5685493E3,2.075183E3,2.3522004E3,9.13448E2,4.655101E3,1.1178433E3,9.573399E2,1.4657511E3,8.8644934E2,2.4948825E2,6.639598E2,2.8426475E3,1.8124537E3,6.124913E2,5.0535205E2,2.888858E2,6.684541E2,5.3541E2,9.303411E2,8.63255E2,2.3194344E1,2.322708E2,1.7217453E1,5.8611066E2,7.784912E1,1.6474375E3,1.19521E3,1.3993953E3,4.1305853E2],"tree_param":{"num_deleted":"0","num_feature":"29","num_nodes":"31","size_leaf_vector":"1"}},{"base_weights":[5.5092177E-3,2.2482355E-1,-3.5678032E-1,1.052966E-1,5.11727E-1,-5.578437E-1,-1.9021012E-1,-3.451129E-2,3.035341E-1,3.7479198E-1,6.755093E-1,-6.1203647E-1,6.304965E-2,-7.709166E-2,-6.198831E-1,-7.488668E-3,9.539228E-3,2.1118961E-2,9.362509E-3,1.5112206E-3,2.1925706E-2,4.4580515E-2,2.937992E-2,-2.4508348E-2,-4.0865805E-2,8.216384E-3,-8.981524E-2,1.3186515E-3,-1.8116483E-2,-1.7587489E-2,-4.4393454E-2],"categories":[],"categories_nodes":[],"categories_segments":[],"categories_sizes":[],"default_left":[0,0,0,0,0,0,0,0,0,0,0,0,0,0,0,0,0,0,0,0,0,0,0,0,0,0,0,0,0,0,0],"id":12,"left_children":[1,3,5,7,9,11,13,15,17,19,21,23,25,27,29,-1,-1,-1,-1,-1,-1,-1,-1,-1,-1,-1,-1,-1,-1,-1,-1],"loss_changes":[7.963033E2,2.140304E2,1.26462616E2,1.221832E2,4.0916992E1,5.763629E1,1.0048416E2,6.718042E1,2.5117325E1,2.1988113E1,1.5332642E1,3.89881E1,2.634245E1,4.8364403E1,3.0651398E1,0E0,0E0,0E0,0E0,0E0,0E0,0E0,0E0,0E0,0E0,0E0,0E0,0E0,0E0,0E0,0E0],"parents":[2147483647,0,0,1,1,2,2,3,3,4,4,5,5,6,6,7,7,8,8,9,9,10,10,11,11,12,12,13,13,14,14],"right_children":[2,4,6,8,10,12,14,16,18,20,22,24,26,28,30,-1,-1,-1,-1,-1,-1,-1,-1,-1,-1,-1,-1,-1,-1,-1,-1],"split_conditions":[-5.663903E-2,1E0,-2.84842E-2,4.5701748E-1,3.306659E-1,1E0,1E0,1E0,-9.757825E-1,-8.882859E-1,-9.1043794E-1,1.0223554E0,1.5164265E-1,1E0,-3.659526E-1,-7.488668E-3,9.539228E-3,2.1118961E-2,9.362509E-3,1.5112206E-3,2.1925706E-2,4.4580515E-2,2.937992E-2,-2.4508348E-2,-4.0865805E-2,8.216384E-3,-8.981524E-2,1.3186515E-3,-1.8116483E-2,-1.7587489E-2,-4.4393454E-2],"split_indices":[4,19,3,3,3,18,13,18,4,9,6,4,27,14,9,0,0,0,0,0,0,0,0,0,0,0,0,0,0,0,0],"split_type":[0,0,0,0,0,0,0,0,0,0,0,0,0,0,0,0,0,0,0,0,0,0,0,0,0,0,0,0,0,0,0],"sum_hessian":[1.00200205E4,6.241853E3,3.778167E3,4.407154E3,1.8346993E3,1.7107762E3,2.0673909E3,2.5849397E3,1.8222142E3,1.00103937E3,8.336599E2,1.5734562E3,1.3731996E2,1.6374774E3,4.2991336E2,1.7102867E3,8.7465283E2,8.9988086E2,9.2233344E2,1.5646318E2,8.445762E2,2.3842503E2,5.952349E2,9.8943854E2,5.840177E2,1.3109113E2,6.22884E0,1.2022805E3,4.3519696E2,2.1605353E2,2.1385983E2],"tree_param":{"num_deleted":"0","num_feature":"29","num_nodes":"31","size_leaf_vector":"1"}},{"base_weights":[1.6562879E-3,-3.4439301E-1,2.9240188E-1,-5.4305726E-1,-1.7717677E-1,8.580173E-2,3.8254172E-1,-3.6693105E-1,-6.467045E-1,-5.400723E-2,-2.8436852E-1,1.9825071E-2,4.1835135E-1,2.9621658E-1,4.8779184E-1,-1.5966795E-2,-5.5743314E-2,-4.5150742E-2,-2.614423E-2,-1.901148E-2,-5.7907822E-5,-1.8479692E-2,3.8340252E-3,1.8199825E-3,-4.0433068E-2,6.1646897E-2,1.6345996E-2,1.6963767E-2,6.0430733E-3,2.6001034E-2,9.048901E-3],"categories":[],"categories_nodes":[],"categories_segments":[],"categories_sizes":[],"default_left":[0,0,0,0,0,0,0,0,0,0,0,0,0,0,0,0,0,0,0,0,0,0,0,0,0,0,0,0,0,0,0],"id":13,"left_children":[1,3,5,7,9,11,13,15,17,19,21,23,25,27,29,-1,-1,-1,-1,-1,-1,-1,-1,-1,-1,-1,-1,-1,-1,-1,-1],"loss_changes":[1.0082937E3,1.5190521E2,1.0138675E2,3.792816E1,3.2805824E1,3.6316216E1,3.4302734E1,2.7298134E1,4.125598E1,1.9963938E1,4.0920662E1,1.9014421E1,2.0006802E1,1.5705704E1,1.6783844E1,0E0,0E0,0E0,0E0,0E0,0E0,0E0,0E0,0E0,0E0,0E0,0E0,0E0,0E0,0E0,0E0],"parents":[2147483647,0,0,1,1,2,2,3,3,4,4,5,5,6,6,7,7,8,8,9,9,10,10,11,11,12,12,13,13,14,14],"right_children":[2,4,6,8,10,12,14,16,18,20,22,24,26,28,30,-1,-1,-1,-1,-1,-1,-1,-1,-1,-1,-1,-1,-1,-1,-1,-1],"split_conditions":[1.9476579E-1,-7.410504E-1,7.231293E-1,3.4298858E-1,-1.3656455E-1,1.3592819E0,1.31112E0,1.2996993E0,-1.4300761E0,-1.1286644E0,8.3413774E-1,1.4219831E0,1.3094395E-1,6.0971063E-1,-9.660179E-2,-1.5966795E-2,-5.5743314E-2,-4.5150742E-2,-2.614423E-2,-1.901148E-2,-5.7907822E-5,-1.8479692E-2,3.8340252E-3,1.8199825E-3,-4.0433068E-2,6.1646897E-2,1.6345996E-2,1.6963767E-2,6.0430733E-3,2.6001034E-2,9.048901E-3],"split_indices":[1,1,1,5,5,9,1,9,1,9,2,5,28,2,5,0,0,0,0,0,0,0,0,0,0,0,0,0,0,0,0],"split_type":[0,0,0,0,0,0,0,0,0,0,0,0,0,0,0,0,0,0,0,0,0,0,0,0,0,0,0,0,0,0,0],"sum_hessian":[1.0019572E4,4.574617E3,5.444955E3,2.0896836E3,2.4849338E3,1.6545907E3,3.7903643E3,7.758438E2,1.3138397E3,1.1569895E3,1.3279445E3,1.3815548E3,2.7303595E2,2.0844956E3,1.7058688E3,7.3076807E2,4.507576E1,4.259074E2,8.879323E2,1.6044055E2,9.965489E2,1.0743268E3,2.5361757E2,1.355395E3,2.6159773E1,2.6293692E1,2.4674225E2,1.6728014E3,4.1169406E2,1.5430829E3,1.6278596E2],"tree_param":{"num_deleted":"0","num_feature":"29","num_nodes":"31","size_leaf_vector":"1"}},{"base_weights":[-4.5843045E-3,-3.998051E-1,2.3645103E-1,-6.02851E-1,-2.2490391E-1,6.6705845E-2,3.6622387E-1,-3.150514E-1,-7.3032856E-1,-4.261255E-1,1.5568128E-2,-1.500035E-1,1.5954712E-1,-6.269381E-2,4.127367E-1,-6.770879E-3,-4.1392297E-2,-4.13309E-2,-2.3072932E-2,-7.611513E-3,-2.7042288E-2,2.0701953E-3,-5.1907808E-2,3.0976156E-2,-9.770588E-3,1.2462959E-2,-2.0641142E-3,-1.791008E-2,8.390126E-3,1.8402902E-2,3.368833E-2],"categories":[],"categories_nodes":[],"categories_segments":[],"categories_sizes":[],"default_left":[0,0,0,0,0,0,0,0,0,0,0,0,0,0,0,0,0,0,0,0,0,0,0,0,0,0,0,0,0,0,0],"id":14,"left_children":[1,3,5,7,9,11,13,15,17,19,21,23,25,27,29,-1,-1,-1,-1,-1,-1,-1,-1,-1,-1,-1,-1,-1,-1,-1,-1],"loss_changes":[9.476862E2,1.3370233E2,1.3609933E2,6.3733093E1,9.805419E1,5.3916718E1,6.9888794E1,4.9348328E1,3.0879822E1,3.4581696E1,2.5199656E1,2.8211485E1,3.3804947E1,2.3454813E1,3.659839E1,0E0,0E0,0E0,0E0,0E0,0E0,0E0,0E0,0E0,0E0,0E0,0E0,0E0,0E0,0E0,0E0],"parents":[2147483647,0,0,1,1,2,2,3,3,4,4,5,5,6,6,7,7,8,8,9,9,10,10,11,11,12,12,13,13,14,14],"right_children":[2,4,6,8,10,12,14,16,18,20,22,24,26,28,30,-1,-1,-1,-1,-1,-1,-1,-1,-1,-1,-1,-1,-1,-1,-1,-1],"split_conditions":[-6.196255E-2,2.4306536E-2,7.993196E-1,-1.3656455E-1,-7.162057E-1,-5.7196915E-1,-1.3188282E0,2.7715224E-1,4.6648896E-1,-8.534657E-1,-8.680723E-2,-2.5523687E-2,-5.663903E-2,1.2630869E0,1.3561908E0,-6.770879E-3,-4.1392297E-2,-4.13309E-2,-2.3072932E-2,-7.611513E-3,-2.7042288E-2,2.0701953E-3,-5.1907808E-2,3.0976156E-2,-9.770588E-3,1.2462959E-2,-2.0641142E-3,-1.791008E-2,8.390126E-3,1.8402902E-2,3.368833E-2],"split_indices":[1,3,1,4,1,3,3,2,2,9,1,1,4,1,3,0,0,0,0,0,0,0,0,0,0,0,0,0,0,0,0],"split_type":[0,0,0,0,0,0,0,0,0,0,0,0,0,0,0,0,0,0,0,0,0,0,0,0,0,0,0,0,0,0,0],"sum_hessian":[9.946197E3,3.7677063E3,6.1784907E3,1.7424353E3,2.0252709E3,2.6776245E3,3.5008665E3,5.359408E2,1.2064945E3,1.1022014E3,9.2306946E2,8.028959E2,1.8747285E3,3.424667E2,3.1583997E3,3.9784003E2,1.3810075E2,8.868248E2,3.196697E2,3.2605942E2,7.76142E2,9.019165E2,2.1152966E1,4.403295E1,7.588629E2,1.2956919E3,5.790367E2,1.49827E2,1.9263972E2,2.6988638E3,4.5953592E2],"tree_param":{"num_deleted":"0","num_feature":"29","num_nodes":"31","size_leaf_vector":"1"}},{"base_weights":[-4.6132947E-3,-3.2481351E-1,2.585537E-1,-1.1850369E-1,-4.5172107E-1,1.4031222E-1,4.232687E-1,-2.562332E-1,8.80346E-2,-7.337519E-1,-3.4694E-1,-1.4679698E-2,3.10675E-1,1.9255346E-1,4.9116686E-1,-2.7411474E-2,-9.002116E-3,5.5610794E-3,-8.58494E-2,-4.1977946E-2,-2.170471E-2,-3.1219035E-2,-9.583879E-3,4.290284E-3,-1.1988129E-2,4.724813E-3,1.9678136E-2,-1.19547425E-2,1.4254282E-2,2.6252264E-2,3.4733445E-3],"categories":[],"categories_nodes":[],"categories_segments":[],"categories_sizes":[],"default_left":[0,0,0,0,0,0,0,0,0,0,0,0,0,0,0,0,0,0,0,0,0,0,0,0,0,0,0,0,0,0,0],"id":15,"left_children":[1,3,5,7,9,11,13,15,17,19,21,23,25,27,29,-1,-1,-1,-1,-1,-1,-1,-1,-1,-1,-1,-1,-1,-1,-1,-1],"loss_changes":[8.3432916E2,1.1689114E2,1.05785E2,4.8451683E1,8.145807E1,8.3577805E1,3.5472992E1,2.2629868E1,2.8728142E1,2.3355408E1,8.680661E1,3.752622E1,2.6980713E1,2.0754E1,2.5016235E1,0E0,0E0,0E0,0E0,0E0,0E0,0E0,0E0,0E0,0E0,0E0,0E0,0E0,0E0,0E0,0E0],"parents":[2147483647,0,0,1,1,2,2,3,3,4,4,5,5,6,6,7,7,8,8,9,9,10,10,11,11,12,12,13,13,14,14],"right_children":[2,4,6,8,10,12,14,16,18,20,22,24,26,28,30,-1,-1,-1,-1,-1,-1,-1,-1,-1,-1,-1,-1,-1,-1,-1,-1],"split_conditions":[1.8151529E-1,-5.663903E-2,4.4317073E-1,5.1586616E-1,-6.957245E-1,1.082549E0,5.7074857E-1,-9.5802724E-1,1.6673124E0,4.9530432E-1,-1.1004701E0,-2.964156E-1,-1.0643942E0,-1.0208141E0,1.4382559E0,-2.7411474E-2,-9.002116E-3,5.5610794E-3,-8.58494E-2,-4.1977946E-2,-2.170471E-2,-3.1219035E-2,-9.583879E-3,4.290284E-3,-1.1988129E-2,4.724813E-3,1.9678136E-2,-1.19547425E-2,1.4254282E-2,2.6252264E-2,3.4733445E-3],"split_indices":[1,4,3,3,3,1,1,1,6,2,1,4,3,6,6,0,0,0,0,0,0,0,0,0,0,0,0,0,0,0,0],"split_type":[0,0,0,0,0,0,0,0,0,0,0,0,0,0,0,0,0,0,0,0,0,0,0,0,0,0,0,0,0,0,0],"sum_hessian":[9.899125E3,4.46556E3,5.4335645E3,1.7014681E3,2.764092E3,3.1640715E3,2.269493E3,1.02062585E3,6.808422E2,7.4712146E2,2.0169705E3,1.6572549E3,1.5068165E3,5.169052E2,1.7525878E3,2.0992137E2,8.107045E2,6.7313367E2,7.7085714E0,5.508267E2,1.9629472E2,7.226448E2,1.2943257E3,1.1461774E3,5.110775E2,4.182148E2,1.0886018E3,9.0968285E1,4.2593695E2,1.6220322E3,1.3055559E2],"tree_param":{"num_deleted":"0","num_feature":"29","num_nodes":"31","size_leaf_vector":"1"}},{"base_weights":[2.334896E-3,-3.4074503E-1,2.45478E-1,-4.660058E-1,-1.311764E-1,-1.1045071E-2,3.3053738E-1,-6.0478292E-2,-5.2101433E-1,-7.2907066E-1,-4.913132E-2,9.8371975E-2,-3.8683057E-1,2.4570483E-1,5.082852E-1,-3.088358E-2,5.652524E-3,-3.4408532E-2,-2.176401E-2,-4.8294757E-2,-8.091326E-3,5.235377E-3,-8.025139E-3,-2.8133618E-3,1.6579755E-2,-2.3260614E-2,4.028648E-2,1.7242746E-2,5.8216657E-3,2.075809E-2,3.24669E-2],"categories":[],"categories_nodes":[],"categories_segments":[],"categories_sizes":[],"default_left":[0,0,0,0,0,0,0,0,0,0,0,0,0,0,0,0,0,0,0,0,0,0,0,0,0,0,0,0,0,0,0],"id":16,"left_children":[1,3,5,7,9,11,13,15,17,19,21,23,25,27,29,-1,-1,-1,-1,-1,-1,-1,-1,-1,-1,-1,-1,-1,-1,-1,-1],"loss_changes":[8.24323E2,1.0753116E2,1.26192444E2,5.7185608E1,7.524806E1,5.9291756E1,6.536487E1,2.9801567E1,3.206604E1,2.4711311E1,2.3156843E1,4.0300453E1,3.0770958E1,3.7667557E1,1.8149048E1,0E0,0E0,0E0,0E0,0E0,0E0,0E0,0E0,0E0,0E0,0E0,0E0,0E0,0E0,0E0,0E0],"parents":[2147483647,0,0,1,1,2,2,3,3,4,4,5,5,6,6,7,7,8,8,9,9,10,10,11,11,12,12,13,13,14,14],"right_children":[2,4,6,8,10,12,14,16,18,20,22,24,26,28,30,-1,-1,-1,-1,-1,-1,-1,-1,-1,-1,-1,-1,-1,-1,-1,-1],"split_conditions":[6.888609E-2,5.712532E-1,-7.459189E-1,-9.757825E-1,-1.471484E0,-2.5645283E-1,2.601654E-1,8.756204E-2,-1.1004701E0,8.2374793E-1,-1.667627E-2,1.2514927E0,1.6749035E0,-6.1611766E-1,8.8799757E-1,-3.088358E-2,5.652524E-3,-3.4408532E-2,-2.176401E-2,-4.8294757E-2,-8.091326E-3,5.235377E-3,-8.025139E-3,-2.8133618E-3,1.6579755E-2,-2.3260614E-2,4.028648E-2,1.7242746E-2,5.8216657E-3,2.075809E-2,3.24669E-2],"split_indices":[1,3,3,4,1,4,26,26,1,6,4,1,7,4,3,0,0,0,0,0,0,0,0,0,0,0,0,0,0,0,0],"split_type":[0,0,0,0,0,0,0,0,0,0,0,0,0,0,0,0,0,0,0,0,0,0,0,0,0,0,0,0,0,0,0],"sum_hessian":[9.879891E3,4.0976377E3,5.7822524E3,2.5639324E3,1.5337054E3,1.440088E3,4.3421646E3,3.0649847E2,2.2574338E3,1.841134E2,1.349592E3,1.1159084E3,3.241796E2,2.9409426E3,1.4012219E3,7.217815E1,2.3432033E2,7.629259E2,1.4945079E3,1.2939021E2,5.472319E1,5.667679E2,7.8282416E2,6.714563E2,4.4445212E2,3.0475903E2,1.9420555E1,1.6634349E3,1.2775077E3,8.463815E2,5.548404E2],"tree_param":{"num_deleted":"0","num_feature":"29","num_nodes":"31","size_leaf_vector":"1"}},{"base_weights":[-1.0993965E-2,-3.2015088E-1,2.1720135E-1,-4.6813828E-1,-1.01072915E-1,1.237723E-1,3.9446953E-1,-5.8835644E-1,-2.2960244E-1,-3.0213827E-1,7.616948E-2,-1.9340786E-1,1.9044618E-1,1.3466789E-1,4.553668E-1,-6.3781044E-3,-3.1931978E-2,-3.174126E-2,-5.098392E-3,-1.9734906E-2,1.1438622E-2,1.0470868E-2,-6.622056E-3,-2.416118E-2,-2.939442E-3,1.1581977E-2,-1.3093684E-3,1.0770332E-2,-5.2006077E-2,2.089033E-2,3.6251277E-2],"categories":[],"categories_nodes":[],"categories_segments":[],"categories_sizes":[],"default_left":[0,0,0,0,0,0,0,0,0,0,0,0,0,0,0,0,0,0,0,0,0,0,0,0,0,0,0,0,0,0,0],"id":17,"left_children":[1,3,5,7,9,11,13,15,17,19,21,23,25,27,29,-1,-1,-1,-1,-1,-1,-1,-1,-1,-1,-1,-1,-1,-1,-1,-1],"loss_changes":[6.949475E2,1.3557648E2,9.381561E1,7.145343E1,6.0171814E1,7.855452E1,3.0878967E1,3.8363403E1,4.3286957E1,3.8958916E1,2.4985012E1,2.5151718E1,2.7388382E1,3.5581806E1,1.5739014E1,0E0,0E0,0E0,0E0,0E0,0E0,0E0,0E0,0E0,0E0,0E0,0E0,0E0,0E0,0E0,0E0],"parents":[2147483647,0,0,1,1,2,2,3,3,4,4,5,5,6,6,7,7,8,8,9,9,10,10,11,11,12,12,13,13,14,14],"right_children":[2,4,6,8,10,12,14,16,18,20,22,24,26,28,30,-1,-1,-1,-1,-1,-1,-1,-1,-1,-1,-1,-1,-1,-1,-1,-1],"split_conditions":[9.538708E-2,4.9855772E-1,1E0,-4.313201E-1,-7.410504E-1,-1.0254502E0,-9.761211E-1,-1.4118017E0,-8.145941E-1,1.3109255E0,1.442542E-1,5.210592E-1,2.6306304E-1,-1.3656455E-1,1.8080136E0,-6.3781044E-3,-3.1931978E-2,-3.174126E-2,-5.098392E-3,-1.9734906E-2,1.1438622E-2,1.0470868E-2,-6.622056E-3,-2.416118E-2,-2.939442E-3,1.1581977E-2,-1.3093684E-3,1.0770332E-2,-5.2006077E-2,2.089033E-2,3.6251277E-2],"split_indices":[1,3,19,1,1,3,3,6,6,6,28,1,5,5,1,0,0,0,0,0,0,0,0,0,0,0,0,0,0,0,0],"split_type":[0,0,0,0,0,0,0,0,0,0,0,0,0,0,0,0,0,0,0,0,0,0,0,0,0,0,0,0,0,0,0],"sum_hessian":[9.848695E3,4.182237E3,5.666459E3,2.4954326E3,1.6868042E3,3.7118364E3,1.9546224E3,1.6582404E3,8.371923E2,7.899608E2,8.968433E2,6.444007E2,3.0674358E3,3.7177148E2,1.582851E3,1.634964E2,1.4947439E3,1.995797E2,6.376126E2,6.7290247E2,1.1705835E2,5.472739E2,3.4956943E2,2.0356482E2,4.4083588E2,2.577289E3,4.9014664E2,3.4862823E2,2.3143232E1,1.3915715E3,1.912795E2],"tree_param":{"num_deleted":"0","num_feature":"29","num_nodes":"31","size_leaf_vector":"1"}},{"base_weights":[1.1035086E-3,1.9897012E-1,-2.4435823E-1,1.1339967E-1,3.91776E-1,-4.3072826E-1,-1.2858218E-1,1.375491E-1,-4.681043E-1,4.511336E-1,1.6901284E-1,-2.0364225E-1,-5.199905E-1,-5.064261E-2,-4.7072217E-1,8.394854E-3,-1.17068635E-2,-4.9427018E-2,-7.022913E-3,1.6256692E-2,2.6870653E-2,-2.9695028E-2,1.1969809E-2,2.7543271E-2,-1.5734753E-2,-2.1095825E-2,-4.208743E-2,2.0412274E-3,-1.7806122E-2,8.237614E-2,-2.4815101E-2],"categories":[],"categories_nodes":[],"categories_segments":[],"categories_sizes":[],"default_left":[0,0,0,0,0,0,0,0,0,0,0,0,0,0,0,0,0,0,0,0,0,0,0,0,0,0,0,0,0,0,0],"id":18,"left_children":[1,3,5,7,9,11,13,15,17,19,21,23,25,27,29,-1,-1,-1,-1,-1,-1,-1,-1,-1,-1,-1,-1,-1,-1,-1,-1],"loss_changes":[4.785319E2,8.995851E1,9.482941E1,5.314329E1,2.2091309E1,3.4041016E1,7.2344894E1,4.098326E1,2.5598946E1,1.4209534E1,1.916827E1,4.0139153E1,3.7783997E1,6.1806107E1,2.8093979E1,0E0,0E0,0E0,0E0,0E0,0E0,0E0,0E0,0E0,0E0,0E0,0E0,0E0,0E0,0E0,0E0],"parents":[2147483647,0,0,1,1,2,2,3,3,4,4,5,5,6,6,7,7,8,8,9,9,10,10,11,11,12,12,13,13,14,14],"right_children":[2,4,6,8,10,12,14,16,18,20,22,24,26,28,30,-1,-1,-1,-1,-1,-1,-1,-1,-1,-1,-1,-1,-1,-1,-1,-1],"split_conditions":[-2.964156E-1,8.1530213E-1,-2.6387894E-1,1E0,-6.960432E-1,1.4080557E-1,1E0,1E0,1.4239088E-1,-1.8586577E-1,-1.3232241E0,-1.3879273E0,1.2221693E0,1E0,-2.5176305E-1,8.394854E-3,-1.17068635E-2,-4.9427018E-2,-7.022913E-3,1.6256692E-2,2.6870653E-2,-2.9695028E-2,1.1969809E-2,2.7543271E-2,-1.5734753E-2,-2.1095825E-2,-4.208743E-2,2.0412274E-3,-1.7806122E-2,8.237614E-2,-2.4815101E-2],"split_indices":[4,3,3,14,4,27,13,15,27,7,6,6,4,14,3,0,0,0,0,0,0,0,0,0,0,0,0,0,0,0,0],"split_type":[0,0,0,0,0,0,0,0,0,0,0,0,0,0,0,0,0,0,0,0,0,0,0,0,0,0,0,0,0,0,0],"sum_hessian":[9.850684E3,5.4542246E3,4.396459E3,3.7787437E3,1.675481E3,1.6835885E3,2.7128704E3,3.6288054E3,1.4993816E2,1.3221538E3,3.5332715E2,4.759746E2,1.2076139E3,2.2104724E3,5.0239813E2,3.3553882E3,2.7341724E2,5.7147476E1,9.279068E1,5.393185E2,7.828354E2,2.9215078E1,3.2411206E2,6.0560196E1,4.154144E2,9.272832E2,2.8033066E2,1.7017874E3,5.0868497E2,5.237986E0,4.9716016E2],"tree_param":{"num_deleted":"0","num_feature":"29","num_nodes":"31","size_leaf_vector":"1"}},{"base_weights":[-1.1223801E-2,-2.8966963E-1,1.9601774E-1,-4.7259656E-1,-1.5680118E-1,2.351469E-1,-1.22811615E-1,-9.837654E-1,-4.2724976E-1,-3.449037E-1,-5.8672063E-2,-1.5406876E-2,2.8704932E-1,-2.8710163E-1,8.3084926E-2,5.050426E-3,-5.2329894E-2,-1.116033E-2,-2.6989454E-2,-1.8258167E-2,5.8006126E-2,-1.3676136E-3,-2.691835E-2,-8.2384E-3,1.1729044E-2,1.1696278E-2,2.0544078E-2,1.0789995E-2,-2.4609188E-2,4.126556E-2,1.4372243E-3],"categories":[],"categories_nodes":[],"categories_segments":[],"categories_sizes":[],"default_left":[0,0,0,0,0,0,0,0,0,0,0,0,0,0,0,0,0,0,0,0,0,0,0,0,0,0,0,0,0,0,0],"id":19,"left_children":[1,3,5,7,9,11,13,15,17,19,21,23,25,27,29,-1,-1,-1,-1,-1,-1,-1,-1,-1,-1,-1,-1,-1,-1,-1,-1],"loss_changes":[5.625883E2,1.0103519E2,6.975868E1,4.0139465E1,4.4486477E1,6.4749054E1,2.0713564E1,9.771393E0,3.6826202E1,2.562249E1,2.3809793E1,3.1974522E1,2.7035858E1,3.5215317E1,1.0955791E1,0E0,0E0,0E0,0E0,0E0,0E0,0E0,0E0,0E0,0E0,0E0,0E0,0E0,0E0,0E0,0E0],"parents":[2147483647,0,0,1,1,2,2,3,3,4,4,5,5,6,6,7,7,8,8,9,9,10,10,11,11,12,12,13,13,14,14],"right_children":[2,4,6,8,10,12,14,16,18,20,22,24,26,28,30,-1,-1,-1,-1,-1,-1,-1,-1,-1,-1,-1,-1,-1,-1,-1,-1],"split_conditions":[1.0863757E-1,6.656079E-2,3.030258E-1,-1.398447E0,-3.928268E-1,-1.0384315E0,3.4451264E-1,-1.714326E0,3.4298858E-1,1.7075356E0,1.5508522E0,1.2514927E0,9.8059773E-1,-6.482776E-1,4.024959E-1,5.050426E-3,-5.2329894E-2,-1.116033E-2,-2.6989454E-2,-1.8258167E-2,5.8006126E-2,-1.3676136E-3,-2.691835E-2,-8.2384E-3,1.1729044E-2,1.1696278E-2,2.0544078E-2,1.0789995E-2,-2.4609188E-2,4.126556E-2,1.4372243E-3],"split_indices":[1,26,4,3,3,3,3,3,4,0,7,1,3,2,3,0,0,0,0,0,0,0,0,0,0,0,0,0,0,0,0],"split_type":[0,0,0,0,0,0,0,0,0,0,0,0,0,0,0,0,0,0,0,0,0,0,0,0,0,0,0,0,0,0,0],"sum_hessian":[9.747311E3,4.1589824E3,5.588328E3,1.7487837E3,2.4101987E3,4.9776904E3,6.106376E2,1.4081064E2,1.607973E3,8.25429E2,1.5847698E3,8.543077E2,4.123383E3,3.3941522E2,2.7122232E2,7.6762376E0,1.331344E2,5.726657E2,1.0353073E3,8.152126E2,1.0216454E1,1.4886324E3,9.613738E1,5.3500006E2,3.1930762E2,2.8875283E3,1.2358545E3,9.8303505E1,2.4111172E2,1.7534466E1,2.5368787E2],"tree_param":{"num_deleted":"0","num_feature":"29","num_nodes":"31","size_leaf_vector":"1"}},{"base_weights":[1.9261038E-2,-2.4870577E-1,2.152253E-1,-6.9734097E-1,-1.8333897E-1,-1.2221271E-3,2.9240033E-1,-3.8423756E-1,-8.607962E-1,-3.2856208E-1,2.841922E-2,-1.12570934E-1,2.3782778E-1,1.4736927E-1,3.6400637E-1,2.5719563E-2,-2.9144615E-2,-1.1575936E-2,-4.9909577E-2,-6.2241177E-3,-2.2524728E-2,2.97979E-3,-2.3230959E-2,-1.3044752E-3,-1.4847311E-2,1.4590152E-2,-3.4708183E-2,1.7275114E-2,9.085118E-4,1.5846502E-2,2.887844E-2],"categories":[],"categories_nodes":[],"categories_segments":[],"categories_sizes":[],"default_left":[0,0,0,0,0,0,0,0,0,0,0,0,0,0,0,0,0,0,0,0,0,0,0,0,0,0,0,0,0,0,0],"id":20,"left_children":[1,3,5,7,9,11,13,15,17,19,21,23,25,27,29,-1,-1,-1,-1,-1,-1,-1,-1,-1,-1,-1,-1,-1,-1,-1,-1],"loss_changes":[5.156503E2,1.2151172E2,9.474402E1,2.6647247E1,1.1138531E2,3.9734283E1,4.3366913E1,3.289865E1,2.9643066E1,5.3405975E1,2.2689062E1,1.6230518E1,2.406541E1,3.5413445E1,2.7951141E1,0E0,0E0,0E0,0E0,0E0,0E0,0E0,0E0,0E0,0E0,0E0,0E0,0E0,0E0,0E0,0E0],"parents":[2147483647,0,0,1,1,2,2,3,3,4,4,5,5,6,6,7,7,8,8,9,9,10,10,11,11,12,12,13,13,14,14],"right_children":[2,4,6,8,10,12,14,16,18,20,22,24,26,28,30,-1,-1,-1,-1,-1,-1,-1,-1,-1,-1,-1,-1,-1,-1,-1,-1],"split_conditions":[9.538708E-2,-1.444983E0,-6.957245E-1,1.4029413E-1,4.9855772E-1,1.2995259E0,6.833778E-1,4.505745E-2,-1.765273E-1,-1.3656455E-1,1.6115689E0,1.4438027E-1,1.0321201E-1,-3.129649E-1,1.3561908E0,2.5719563E-2,-2.9144615E-2,-1.1575936E-2,-4.9909577E-2,-6.2241177E-3,-2.2524728E-2,2.97979E-3,-2.3230959E-2,-1.3044752E-3,-1.4847311E-2,1.4590152E-2,-3.4708183E-2,1.7275114E-2,9.085118E-4,1.5846502E-2,2.887844E-2],"split_indices":[1,1,3,28,3,1,1,26,4,4,2,27,4,10,3,0,0,0,0,0,0,0,0,0,0,0,0,0,0,0,0],"split_type":[0,0,0,0,0,0,0,0,0,0,0,0,0,0,0,0,0,0,0,0,0,0,0,0,0,0,0,0,0,0,0],"sum_hessian":[9.817662E3,4.146862E3,5.6708003E3,5.2613635E2,3.6207256E3,1.4907584E3,4.180042E3,1.8160919E2,3.445272E2,2.1474556E3,1.47327E3,1.01739E3,4.7336844E2,1.3826589E3,2.797383E3,3.25912E1,1.4901799E2,6.2223843E1,2.8230334E2,8.039298E2,1.3435258E3,1.3864773E3,8.679279E1,6.933261E2,3.2406387E2,4.481039E2,2.5264538E1,5.450793E2,8.375797E2,2.2941577E3,5.0322528E2],"tree_param":{"num_deleted":"0","num_feature":"29","num_nodes":"31","size_leaf_vector":"1"}},{"base_weights":[6.392026E-4,-2.1946406E-1,2.4841402E-1,-5.2812135E-1,-1.2676105E-1,2.0452873E-1,4.4104317E-1,-2.5966907E-1,-6.216348E-1,1.3072246E-2,-2.2477579E-1,2.7877784E-1,1.2059936E-1,2.936864E-1,5.739541E-1,-4.616054E-2,-5.447973E-3,-1.3595653E-2,-3.5200544E-2,2.480781E-3,-1.442107E-2,1.1617426E-3,-1.3959668E-2,1.5253118E-2,-3.9436314E-3,-1.633235E-2,7.2786137E-3,3.149923E-2,7.1214796E-3,1.6307827E-2,3.4465987E-2],"categories":[],"categories_nodes":[],"categories_segments":[],"categories_sizes":[],"default_left":[0,0,0,0,0,0,0,0,0,0,0,0,0,0,0,0,0,0,0,0,0,0,0,0,0,0,0,0,0,0,0],"id":21,"left_children":[1,3,5,7,9,11,13,15,17,19,21,23,25,27,29,-1,-1,-1,-1,-1,-1,-1,-1,-1,-1,-1,-1,-1,-1,-1,-1],"loss_changes":[5.275839E2,1.4652258E2,3.838159E1,2.9535889E1,5.4018845E1,2.307582E1,1.635292E1,3.0633863E1,2.5063385E1,1.7918344E1,3.1278107E1,1.8514252E1,1.950938E1,2.036353E1,1.2424316E1,0E0,0E0,0E0,0E0,0E0,0E0,0E0,0E0,0E0,0E0,0E0,0E0,0E0,0E0,0E0,0E0],"parents":[2147483647,0,0,1,1,2,2,3,3,4,4,5,5,6,6,7,7,8,8,9,9,10,10,11,11,12,12,13,13,14,14],"right_children":[2,4,6,8,10,12,14,16,18,20,22,24,26,28,30,-1,-1,-1,-1,-1,-1,-1,-1,-1,-1,-1,-1,-1,-1,-1,-1],"split_conditions":[4.465252E-1,-1.1004701E0,1.5529416E0,1.0321201E-1,-2.964156E-1,-9.757825E-1,6.2236797E-2,-9.9417156E-1,4.5759913E-2,3.3389598E-1,-1.1061947E0,1.4659365E0,-1.5207939E0,-6.9895905E-1,1.0127446E-2,-4.616054E-2,-5.447973E-3,-1.3595653E-2,-3.5200544E-2,2.480781E-3,-1.442107E-2,1.1617426E-3,-1.3959668E-2,1.5253118E-2,-3.9436314E-3,-1.633235E-2,7.2786137E-3,3.149923E-2,7.1214796E-3,1.6307827E-2,3.4465987E-2],"split_indices":[1,1,1,5,5,5,7,6,26,1,9,6,6,2,8,0,0,0,0,0,0,0,0,0,0,0,0,0,0,0,0],"split_type":[0,0,0,0,0,0,0,0,0,0,0,0,0,0,0,0,0,0,0,0,0,0,0,0,0,0,0,0,0,0,0],"sum_hessian":[9.672041E3,5.122096E3,4.549945E3,1.1819763E3,3.9401196E3,3.707381E3,8.425637E2,3.0633807E2,8.756382E2,1.6240402E3,2.3160796E3,1.9659016E3,1.7414794E3,4.0108984E2,4.414739E2,5.5751324E1,2.5058675E2,1.6775348E2,7.078847E2,1.449219E3,1.7482115E2,4.168478E2,1.8992317E3,1.8314513E3,1.3445041E2,9.1457825E1,1.6500216E3,1.2345037E2,2.7763947E2,1.4145824E2,3.0001566E2],"tree_param":{"num_deleted":"0","num_feature":"29","num_nodes":"31","size_leaf_vector":"1"}},{"base_weights":[-8.9226663E-4,-2.772191E-1,1.6503304E-1,-4.4499466E-1,-1.968408E-1,2.1220536E-3,2.4823438E-1,-1.9373403E-1,-5.6965244E-1,1.5387748E-1,-2.2738522E-1,-5.622084E-2,3.6548862E-1,2.9041448E-1,8.054877E-2,-2.1946711E-2,1.6394008E-2,-3.479719E-2,-1.5420263E-2,-1.2214753E-2,2.1840598E-2,-4.555373E-3,-1.5682755E-2,5.3361E-3,-7.934029E-3,4.1283514E-2,1.1420372E-2,1.2995267E-2,2.7271241E-2,1.2251956E-3,2.8258542E-2],"categories":[],"categories_nodes":[],"categories_segments":[],"categories_sizes":[],"default_left":[0,0,0,0,0,0,0,0,0,0,0,0,0,0,0,0,0,0,0,0,0,0,0,0,0,0,0,0,0,0,0],"id":22,"left_children":[1,3,5,7,9,11,13,15,17,19,21,23,25,27,29,-1,-1,-1,-1,-1,-1,-1,-1,-1,-1,-1,-1,-1,-1,-1,-1],"loss_changes":[4.4398047E2,4.8905884E1,8.2008606E1,3.6722855E1,2.6367111E1,4.3404137E1,2.830362E1,5.0213715E1,2.570131E1,2.2358946E1,2.6559784E1,2.94697E1,1.7679531E1,2.4751862E1,2.1886389E1,0E0,0E0,0E0,0E0,0E0,0E0,0E0,0E0,0E0,0E0,0E0,0E0,0E0,0E0,0E0,0E0],"parents":[2147483647,0,0,1,1,2,2,3,3,4,4,5,5,6,6,7,7,8,8,9,9,10,10,11,11,12,12,13,13,14,14],"right_children":[2,4,6,8,10,12,14,16,18,20,22,24,26,28,30,-1,-1,-1,-1,-1,-1,-1,-1,-1,-1,-1,-1,-1,-1,-1,-1],"split_conditions":[-6.196255E-2,-1.1004701E0,6.187816E-1,3.030258E-1,-1.407929E0,1.4188032E0,-3.3637834E-1,7.687329E-1,2.6272285E-1,1.4317477E-1,-1.3656455E-1,-3.129649E-1,1.3819385E-1,1.720229E0,1.5855445E0,-2.1946711E-2,1.6394008E-2,-3.479719E-2,-1.5420263E-2,-1.2214753E-2,2.1840598E-2,-4.555373E-3,-1.5682755E-2,5.3361E-3,-7.934029E-3,4.1283514E-2,1.1420372E-2,1.2995267E-2,2.7271241E-2,1.2251956E-3,2.8258542E-2],"split_indices":[1,1,1,4,9,9,4,6,2,4,4,10,27,1,10,0,0,0,0,0,0,0,0,0,0,0,0,0,0,0,0],"split_type":[0,0,0,0,0,0,0,0,0,0,0,0,0,0,0,0,0,0,0,0,0,0,0,0,0,0,0,0,0,0,0],"sum_hessian":[9.681409E3,3.632045E3,6.0493643E3,1.1749683E3,2.4570767E3,2.0454095E3,4.0039548E3,3.904765E2,7.8449176E2,1.9652246E2,2.2605542E3,1.7631584E3,2.8225113E2,3.1986304E3,8.053245E2,2.6572372E2,1.24752785E2,5.277192E2,2.5677258E2,8.169291E1,1.14829544E2,8.770935E2,1.3834607E3,6.806583E2,1.0825001E3,6.362816E1,2.1862297E2,2.8586445E3,3.399858E2,7.2278723E2,8.253728E1],"tree_param":{"num_deleted":"0","num_feature":"29","num_nodes":"31","size_leaf_vector":"1"}},{"base_weights":[3.1619452E-4,-2.0427282E-1,2.2698821E-1,-3.4081963E-1,-3.127793E-2,1.5660886E-1,4.1970098E-1,-4.945522E-1,-1.3956822E-1,-3.3332783E-1,4.8455704E-2,1.6783348E-1,-7.304499E-1,4.815834E-1,1.2948515E-1,-2.1820797E-2,-4.33734E-2,-7.978859E-3,5.1120937E-2,-2.5710023E-3,-3.6491867E-2,7.1586664E-3,-8.611273E-3,8.443176E-4,1.1017974E-2,-1.2929425E-2,-7.669036E-2,-4.4416245E-2,2.4737759E-2,-3.239299E-2,1.2448286E-2],"categories":[],"categories_nodes":[],"categories_segments":[],"categories_sizes":[],"default_left":[0,0,0,0,0,0,0,0,0,0,0,0,0,0,0,0,0,0,0,0,0,0,0,0,0,0,0,0,0,0,0],"id":23,"left_children":[1,3,5,7,9,11,13,15,17,19,21,23,25,27,29,-1,-1,-1,-1,-1,-1,-1,-1,-1,-1,-1,-1,-1,-1,-1,-1],"loss_changes":[4.5227014E2,1.21074356E2,6.268454E1,8.856058E1,5.450022E1,3.388166E1,2.215419E1,3.482263E1,2.9039646E1,5.2788857E1,3.7454563E1,2.654908E1,1.5734283E1,1.883133E1,2.0481417E1,0E0,0E0,0E0,0E0,0E0,0E0,0E0,0E0,0E0,0E0,0E0,0E0,0E0,0E0,0E0,0E0],"parents":[2147483647,0,0,1,1,2,2,3,3,4,4,5,5,6,6,7,7,8,8,9,9,10,10,11,11,12,12,13,13,14,14],"right_children":[2,4,6,8,10,12,14,16,18,20,22,24,26,28,30,-1,-1,-1,-1,-1,-1,-1,-1,-1,-1,-1,-1,-1,-1,-1,-1],"split_conditions":[4.316184E-1,3.756678E-1,9.286724E-1,-3.5181713E-1,-1.1352526E0,1.1822065E0,6.785752E-1,1.2216557E0,3.5518198E0,5.1982533E-2,1E0,-9.882371E-1,1.4311868E-1,4.597757E-1,8.5896456E-1,-2.1820797E-2,-4.33734E-2,-7.978859E-3,5.1120937E-2,-2.5710023E-3,-3.6491867E-2,7.1586664E-3,-8.611273E-3,8.443176E-4,1.1017974E-2,-1.2929425E-2,-7.669036E-2,-4.4416245E-2,2.4737759E-2,-3.239299E-2,1.2448286E-2],"split_indices":[1,3,3,1,1,5,2,6,2,26,23,3,27,1,2,0,0,0,0,0,0,0,0,0,0,0,0,0,0,0,0],"split_type":[0,0,0,0,0,0,0,0,0,0,0,0,0,0,0,0,0,0,0,0,0,0,0,0,0,0,0,0,0,0,0],"sum_hessian":[9.75054E3,5.124963E3,4.6255767E3,2.8636677E3,2.2612952E3,3.389524E3,1.2360527E3,1.6226758E3,1.2409921E3,4.7159625E2,1.789699E3,3.3479702E3,4.1553543E1,1.0182689E3,2.1778384E2,1.4057021E3,2.1697371E2,1.2208324E3,2.0159578E1,2.762906E2,1.9530565E2,1.252479E3,5.3722E2,8.646098E2,2.4833606E3,2.7010496E1,1.4543049E1,9.064747E0,1.00920416E3,2.8425323E1,1.8935852E2],"tree_param":{"num_deleted":"0","num_feature":"29","num_nodes":"31","size_leaf_vector":"1"}},{"base_weights":[-1.3799412E-3,-2.2294623E-1,1.8097743E-1,-3.8836882E-1,-1.09671466E-1,1.082875E-1,3.7640208E-1,-4.933448E-1,-1.902951E-1,-4.9623278E-1,-5.886627E-2,-8.477764E-2,1.6356555E-1,4.4619527E-1,9.9654175E-2,-2.6683792E-2,5.6602606E-3,-2.6140107E-2,-4.088427E-3,8.663649E-3,-3.3364978E-2,-8.962116E-3,1.9901134E-3,-2.1783022E-2,2.2786646E-3,8.999147E-3,-1.7218968E-2,3.377328E-2,1.9876955E-2,2.2048673E-2,-3.9338027E-3],"categories":[],"categories_nodes":[],"categories_segments":[],"categories_sizes":[],"default_left":[0,0,0,0,0,0,0,0,0,0,0,0,0,0,0,0,0,0,0,0,0,0,0,0,0,0,0,0,0,0,0],"id":24,"left_children":[1,3,5,7,9,11,13,15,17,19,21,23,25,27,29,-1,-1,-1,-1,-1,-1,-1,-1,-1,-1,-1,-1,-1,-1,-1,-1],"loss_changes":[3.8907205E2,8.141933E1,7.4993805E1,3.6638336E1,5.0675667E1,4.1117634E1,2.760817E1,2.8290527E1,2.2098253E1,3.4448563E1,2.7123463E1,3.9260414E1,2.5033615E1,1.2482529E1,1.7663311E1,0E0,0E0,0E0,0E0,0E0,0E0,0E0,0E0,0E0,0E0,0E0,0E0,0E0,0E0,0E0,0E0],"parents":[2147483647,0,0,1,1,2,2,3,3,4,4,5,5,6,6,7,7,8,8,9,9,10,10,11,11,12,12,13,13,14,14],"right_children":[2,4,6,8,10,12,14,16,18,20,22,24,26,28,30,-1,-1,-1,-1,-1,-1,-1,-1,-1,-1,-1,-1,-1,-1,-1,-1],"split_conditions":[1.9476579E-1,-1.7214423E-1,9.286724E-1,-3.5181713E-1,-1.444983E0,-1.0643942E0,5.587473E-1,1.5164265E-1,-8.2808834E-1,-5.663903E-2,-2.95108E-1,1.8722886E-1,8.568424E-1,1.3817577E-1,-6.761914E-1,-2.6683792E-2,5.6602606E-3,-2.6140107E-2,-4.088427E-3,8.663649E-3,-3.3364978E-2,-8.962116E-3,1.9901134E-3,-2.1783022E-2,2.2786646E-3,8.999147E-3,-1.7218968E-2,3.377328E-2,1.9876955E-2,2.2048673E-2,-3.9338027E-3],"split_indices":[1,3,3,1,1,3,2,27,6,4,2,26,3,27,6,0,0,0,0,0,0,0,0,0,0,0,0,0,0,0,0],"split_type":[0,0,0,0,0,0,0,0,0,0,0,0,0,0,0,0,0,0,0,0,0,0,0,0,0,0,0,0,0,0,0],"sum_hessian":[9.627486E3,4.346372E3,5.281114E3,1.7655681E3,2.580804E3,3.8504565E3,1.4306573E3,1.1530034E3,6.125647E2,2.9877194E2,2.282032E3,8.5694415E2,2.9935125E3,1.1420348E3,2.8862262E2,1.0812299E3,7.177355E1,1.4979646E2,4.6276825E2,6.0801117E1,2.3797083E2,1.0275724E3,1.2544596E3,2.3148451E2,6.254596E2,2.9004133E3,9.309922E1,1.9767915E2,9.443556E2,9.854237E1,1.9008025E2],"tree_param":{"num_deleted":"0","num_feature":"29","num_nodes":"31","size_leaf_vector":"1"}},{"base_weights":[1.0954325E-2,-2.9046938E-1,1.3345468E-1,-1.4315692E-1,-3.7348238E-1,8.7756135E-2,4.0463614E-1,-7.587583E-2,-5.942353E-1,7.561222E-4,-4.5983312E-1,1.4312291E-1,-4.168474E-2,4.331984E-1,-4.9694654E-1,-2.8262527E-3,-7.462559E-2,-4.680994E-2,3.2248348E-3,2.2896629E-2,-1.2323557E-2,-1.29446825E-2,-2.8188592E-2,7.478859E-4,9.935524E-3,-3.7117896E-3,1.9234864E-2,2.6293913E-2,1.4903242E-2,6.577056E-3,-8.299263E-2],"categories":[],"categories_nodes":[],"categories_segments":[],"categories_sizes":[],"default_left":[0,0,0,0,0,0,0,0,0,0,0,0,0,0,0,0,0,0,0,0,0,0,0,0,0,0,0,0,0,0,0],"id":25,"left_children":[1,3,5,7,9,11,13,15,17,19,21,23,25,27,29,-1,-1,-1,-1,-1,-1,-1,-1,-1,-1,-1,-1,-1,-1,-1,-1],"loss_changes":[3.5465115E2,3.3887405E1,8.459645E1,3.0363085E1,5.7345627E1,4.1900055E1,2.5569809E1,2.3848438E1,2.9322575E1,3.782811E1,2.9967499E1,2.9168297E1,2.434596E1,1.180249E1,2.2656109E1,0E0,0E0,0E0,0E0,0E0,0E0,0E0,0E0,0E0,0E0,0E0,0E0,0E0,0E0,0E0,0E0],"parents":[2147483647,0,0,1,1,2,2,3,3,4,4,5,5,6,6,7,7,8,8,9,9,10,10,11,11,12,12,13,13,14,14],"right_children":[2,4,6,8,10,12,14,16,18,20,22,24,26,28,30,-1,-1,-1,-1,-1,-1,-1,-1,-1,-1,-1,-1,-1,-1,-1,-1],"split_conditions":[-3.783181E-1,1.0321201E-1,1.5082211E0,8.882916E-1,-1.161354E0,-1.765273E-1,3.8295132E-1,1.6673124E0,6.0299563E-1,1.4130296E-1,1.4029413E-1,1.6717982E-1,1.524415E0,1.4324641E-1,-4.733307E-3,-2.8262527E-3,-7.462559E-2,-4.680994E-2,3.2248348E-3,2.2896629E-2,-1.2323557E-2,-1.29446825E-2,-2.8188592E-2,7.478859E-4,9.935524E-3,-3.7117896E-3,1.9234864E-2,2.6293913E-2,1.4903242E-2,6.577056E-3,-8.299263E-2],"split_indices":[1,4,1,2,0,4,4,6,6,27,28,26,0,27,2,0,0,0,0,0,0,0,0,0,0,0,0,0,0,0,0],"split_type":[0,0,0,0,0,0,0,0,0,0,0,0,0,0,0,0,0,0,0,0,0,0,0,0,0,0,0,0,0,0,0],"sum_hessian":[9.602712E3,2.7744773E3,6.8282344E3,1.0009483E3,1.773529E3,5.8446396E3,9.835946E2,8.720456E2,1.2890271E2,3.32685E2,1.440844E3,4.0935623E3,1.7510775E3,9.538946E2,2.9699995E1,8.613202E2,1.0725447E1,8.457604E1,4.4326664E1,1.1646461E2,2.162204E2,4.9240097E2,9.4844305E2,1.2387391E3,2.854823E3,1.627645E3,1.2343253E2,5.6411273E2,3.897819E2,1.9855864E1,9.844132E0],"tree_param":{"num_deleted":"0","num_feature":"29","num_nodes":"31","size_leaf_vector":"1"}},{"base_weights":[5.099166E-3,-1.7376019E-1,2.0453954E-1,-2.7358627E-1,-1.3350631E-2,1.0011386E-1,3.3171892E-1,-4.1817433E-1,-1.708932E-1,7.272241E-2,-2.106908E-1,1.5601662E-1,-1.2510131E-1,2.7690053E-1,5.3455913E-1,-2.7449101E-2,-9.311062E-3,4.2749057E-4,-1.3541366E-2,6.5935925E-3,-1.665396E-2,-3.456427E-2,-2.6996052E-3,9.259275E-3,-8.642874E-3,-1.9597081E-2,4.791915E-3,2.4423873E-2,9.096173E-3,-3.061401E-2,2.7883386E-2],"categories":[],"categories_nodes":[],"categories_segments":[],"categories_sizes":[],"default_left":[0,0,0,0,0,0,0,0,0,0,0,0,0,0,0,0,0,0,0,0,0,0,0,0,0,0,0,0,0,0,0],"id":26,"left_children":[1,3,5,7,9,11,13,15,17,19,21,23,25,27,29,-1,-1,-1,-1,-1,-1,-1,-1,-1,-1,-1,-1,-1,-1,-1,-1],"loss_changes":[3.4255075E2,8.106497E1,6.026419E1,4.626349E1,3.3019844E1,3.1426315E1,2.2609375E1,3.9197235E1,3.2752895E1,3.2536873E1,4.442283E1,1.9207561E1,2.9316011E1,3.2329987E1,1.1852798E1,0E0,0E0,0E0,0E0,0E0,0E0,0E0,0E0,0E0,0E0,0E0,0E0,0E0,0E0,0E0,0E0],"parents":[2147483647,0,0,1,1,2,2,3,3,4,4,5,5,6,6,7,7,8,8,9,9,10,10,11,11,12,12,13,13,14,14],"right_children":[2,4,6,8,10,12,14,16,18,20,22,24,26,28,30,-1,-1,-1,-1,-1,-1,-1,-1,-1,-1,-1,-1,-1,-1,-1,-1],"split_conditions":[1.6717982E-1,5.712532E-1,3.0037612E-1,8.693659E-2,1E0,-2.5645283E-1,1.4617723E0,1E0,1.0127446E-2,1.4219831E0,-6.820709E-1,1.4917588E-1,8.5832905E-3,-7.4677676E-1,-1.6142157E0,-2.7449101E-2,-9.311062E-3,4.2749057E-4,-1.3541366E-2,6.5935925E-3,-1.665396E-2,-3.456427E-2,-2.6996052E-3,9.259275E-3,-8.642874E-3,-1.9597081E-2,4.791915E-3,2.4423873E-2,9.096173E-3,-3.061401E-2,2.7883386E-2],"split_indices":[26,3,3,26,23,4,3,22,8,4,7,27,0,6,6,0,0,0,0,0,0,0,0,0,0,0,0,0,0,0,0],"split_type":[0,0,0,0,0,0,0,0,0,0,0,0,0,0,0,0,0,0,0,0,0,0,0,0,0,0,0,0,0,0,0],"sum_hessian":[9.6008545E3,5.0616577E3,4.539197E3,3.119577E3,1.9420806E3,2.4935532E3,2.0456438E3,1.2942494E3,1.8253275E3,1.3527073E3,5.893733E2,1.9979346E3,4.9561862E2,1.612283E3,4.3336084E2,8.2668286E2,4.675665E2,6.532527E2,1.1720748E3,1.1812098E3,1.7149751E2,1.440772E2,4.452961E2,1.8355691E3,1.6236551E2,2.2413957E2,2.7147903E2,4.9823666E2,1.1140463E3,8.056061E0,4.2530478E2],"tree_param":{"num_deleted":"0","num_feature":"29","num_nodes":"31","size_leaf_vector":"1"}},{"base_weights":[-5.2147415E-3,-2.901752E-1,1.0849664E-1,-5.84619E-1,-2.2552091E-1,-1.4783915E-2,2.09907E-1,-3.7018248E-1,-8.097521E-1,-3.9424318E-1,-7.743303E-2,-1.7636079E-1,9.405809E-2,-6.800962E-2,2.4180533E-1,-2.557759E-2,1.941241E-2,-4.2411532E-2,4.2581707E-2,-2.2115214E-2,6.11635E-3,1.511595E-3,-2.82234E-2,-1.2766669E-2,1.3181934E-2,3.0667534E-2,3.3135524E-3,-5.4219928E-2,-9.2697295E-4,1.1353488E-2,3.420358E-2],"categories":[],"categories_nodes":[],"categories_segments":[],"categories_sizes":[],"default_left":[0,0,0,0,0,0,0,0,0,0,0,0,0,0,0,0,0,0,0,0,0,0,0,0,0,0,0,0,0,0,0],"id":27,"left_children":[1,3,5,7,9,11,13,15,17,19,21,23,25,27,29,-1,-1,-1,-1,-1,-1,-1,-1,-1,-1,-1,-1,-1,-1,-1,-1],"loss_changes":[3.0997653E2,5.181122E1,8.5487785E1,2.3386414E1,5.5909813E1,5.430603E1,3.3275574E1,2.7338707E1,1.5969452E1,2.6030273E1,6.2605453E1,4.3253925E1,2.6584372E1,1.9441284E1,2.1778717E1,0E0,0E0,0E0,0E0,0E0,0E0,0E0,0E0,0E0,0E0,0E0,0E0,0E0,0E0,0E0,0E0],"parents":[2147483647,0,0,1,1,2,2,3,3,4,4,5,5,6,6,7,7,8,8,9,9,10,10,11,11,12,12,13,13,14,14],"right_children":[2,4,6,8,10,12,14,16,18,20,22,24,26,28,30,-1,-1,-1,-1,-1,-1,-1,-1,-1,-1,-1,-1,-1,-1,-1,-1],"split_conditions":[-3.783181E-1,-1.444983E0,6.833778E-1,1.4355181E-1,9.00786E-2,-1.4445072E-1,-1.3188282E0,1.2998532E0,1.6871889E0,1.5015666E-1,1.0157466E0,1.2834967E0,-1.4814212E0,-1.4924213E0,1.900767E0,-2.557759E-2,1.941241E-2,-4.2411532E-2,4.2581707E-2,-2.2115214E-2,6.11635E-3,1.511595E-3,-2.82234E-2,-1.2766669E-2,1.3181934E-2,3.0667534E-2,3.3135524E-3,-5.4219928E-2,-9.2697295E-4,1.1353488E-2,3.420358E-2],"split_indices":[1,1,1,28,3,3,3,6,0,27,0,9,9,6,1,0,0,0,0,0,0,0,0,0,0,0,0,0,0,0,0],"split_type":[0,0,0,0,0,0,0,0,0,0,0,0,0,0,0,0,0,0,0,0,0,0,0,0,0,0,0,0,0,0,0],"sum_hessian":[9.564246E3,2.7275247E3,6.8367217E3,4.896328E2,2.2378918E3,3.0860215E3,3.7507004E3,2.5212816E2,2.3750465E2,1.04529E3,1.1926017E3,1.2418557E3,1.8441656E3,3.8605313E2,3.3646472E3,2.1279019E2,3.9337967E1,2.3260681E2,4.897848E0,9.564471E2,8.8842964E1,9.7746027E2,2.151414E2,1.0532369E3,1.8861877E2,9.259778E1,1.7515679E3,1.6947065E1,3.6910608E2,3.2576223E3,1.07025055E2],"tree_param":{"num_deleted":"0","num_feature":"29","num_nodes":"31","size_leaf_vector":"1"}},{"base_weights":[4.2767697E-3,-2.1395563E-1,1.3487189E-1,-3.3177793E-1,-4.9440272E-2,8.533024E-2,2.8130475E-1,-3.2005584E-1,-8.006375E-2,-1.5401624E-1,1.3402057E-1,-1.8630004E-1,1.0963101E-1,2.4676119E-1,7.544798E-1,-2.0590942E-2,-7.959894E-3,-2.0629708E-2,-1.4117071E-3,1.8928308E-2,-2.2364804E-3,-1.3322647E-2,2.6721893E-2,2.8491149E-2,4.6867267E-3,-6.92855E-2,1.2763831E-2,4.737943E-2,1.4946202E-2],"categories":[],"categories_nodes":[],"categories_segments":[],"categories_sizes":[],"default_left":[0,0,0,0,0,0,0,0,0,0,0,0,0,0,0,0,0,0,0,0,0,0,0,0,0,0,0,0,0],"id":28,"left_children":[1,3,5,7,9,11,13,15,-1,17,19,21,23,25,27,-1,-1,-1,-1,-1,-1,-1,-1,-1,-1,-1,-1,-1,-1],"loss_changes":[2.7126447E2,6.905495E1,4.3173912E1,3.0383469E1,2.8572935E1,2.9399025E1,2.441114E1,3.0318604E1,0E0,3.0833324E1,2.3659004E1,2.127724E1,2.9836689E1,1.987062E1,8.681118E0,0E0,0E0,0E0,0E0,0E0,0E0,0E0,0E0,0E0,0E0,0E0,0E0,0E0,0E0],"parents":[2147483647,0,0,1,1,2,2,3,3,4,4,5,5,6,6,7,7,9,9,10,10,11,11,12,12,13,13,14,14],"right_children":[2,4,6,8,10,12,14,16,-1,18,20,22,24,26,28,-1,-1,-1,-1,-1,-1,-1,-1,-1,-1,-1,-1,-1,-1],"split_conditions":[-4.539943E-2,4.7259507E-1,2.723843E-1,1.4342502E-1,1E0,-1.3863311E0,1.900767E0,-5.820445E-1,-8.006375E-2,1.0127446E-2,-3.2713783E-1,1.4938949E0,1.2960947E-1,-1.7004793E0,1E0,-2.0590942E-2,-7.959894E-3,-2.0629708E-2,-1.4117071E-3,1.8928308E-2,-2.2364804E-3,-1.3322647E-2,2.6721893E-2,2.8491149E-2,4.6867267E-3,-6.92855E-2,1.2763831E-2,4.737943E-2,1.4946202E-2],"split_indices":[1,3,26,26,25,3,1,1,0,8,0,0,28,3,21,0,0,0,0,0,0,0,0,0,0,0,0,0,0],"split_type":[0,0,0,0,0,0,0,0,0,0,0,0,0,0,0,0,0,0,0,0,0,0,0,0,0,0,0,0,0],"sum_hessian":[9.516012E3,3.5623948E3,5.953617E3,2.0751797E3,1.487215E3,4.449747E3,1.50387E3,2.057434E3,1.77455E1,9.473621E2,5.398529E2,3.648494E2,4.0848977E3,1.4029695E3,1.0090054E2,1.3090905E3,7.483437E2,3.0927878E2,6.380833E2,2.2749811E2,3.123548E2,3.2890262E2,3.5946793E1,1.3523026E2,3.9496675E3,6.441071E0,1.3965284E3,7.0103714E1,3.0796825E1],"tree_param":{"num_deleted":"0","num_feature":"29","num_nodes":"29","size_leaf_vector":"1"}},{"base_weights":[-5.3152097E-3,-2.7072853E-1,1.0088788E-1,-4.0420407E-1,-1.4052841E-1,-3.9788462E-2,1.7205928E-1,6.0676057E-2,-4.4898167E-1,-5.209086E-1,-6.36642E-2,3.7447285E-2,-2.3550518E-1,6.577413E-2,2.7392158E-1,6.557585E-2,-9.992923E-3,-2.0992639E-2,-6.631474E-2,-3.4312636E-2,1.8968755E-2,1.947053E-4,-2.3435581E-2,-3.5046868E-2,2.6273318E-3,9.775963E-4,-1.8003529E-2,9.434833E-4,1.7713072E-2,1.1704448E-2,2.619253E-2],"categories":[],"categories_nodes":[],"categories_segments":[],"categories_sizes":[],"default_left":[0,0,0,0,0,0,0,0,0,0,0,0,0,0,0,0,0,0,0,0,0,0,0,0,0,0,0,0,0,0,0],"id":29,"left_children":[1,3,5,7,9,11,13,15,17,19,21,23,25,27,29,-1,-1,-1,-1,-1,-1,-1,-1,-1,-1,-1,-1,-1,-1,-1,-1],"loss_changes":[2.6795877E2,4.715631E1,6.798429E1,2.7941101E1,4.0220657E1,3.4501007E1,4.879544E1,3.894359E1,3.0704071E1,3.469119E1,3.1374449E1,1.8287777E1,2.0524952E1,2.9867477E1,2.2794022E1,0E0,0E0,0E0,0E0,0E0,0E0,0E0,0E0,0E0,0E0,0E0,0E0,0E0,0E0,0E0,0E0],"parents":[2147483647,0,0,1,1,2,2,3,3,4,4,5,5,6,6,7,7,8,8,9,9,10,10,11,11,12,12,13,13,14,14],"right_children":[2,4,6,8,10,12,14,16,18,20,22,24,26,28,30,-1,-1,-1,-1,-1,-1,-1,-1,-1,-1,-1,-1,-1,-1,-1,-1],"split_conditions":[-3.783181E-1,1.5585066E-1,-4.516755E-1,4.5759913E-2,-1.4565772E0,-2.5645283E-1,7.47974E-1,-1.3360263E0,2.421052E0,1.288435E0,1.1785206E0,-2.491258E-1,1.307275E-1,1.3983513E0,1.4617723E0,6.557585E-2,-9.992923E-3,-2.0992639E-2,-6.631474E-2,-3.4312636E-2,1.8968755E-2,1.947053E-4,-2.3435581E-2,-3.5046868E-2,2.6273318E-3,9.775963E-4,-1.8003529E-2,9.434833E-4,1.7713072E-2,1.1704448E-2,2.619253E-2],"split_indices":[1,3,3,26,1,4,1,6,4,6,0,1,26,9,3,0,0,0,0,0,0,0,0,0,0,0,0,0,0,0,0],"split_type":[0,0,0,0,0,0,0,0,0,0,0,0,0,0,0,0,0,0,0,0,0,0,0,0,0,0,0,0,0,0,0],"sum_hessian":[9.504256E3,2.7157488E3,6.7885073E3,1.3399674E3,1.3757814E3,2.280784E3,4.507723E3,1.1769589E2,1.2222716E3,2.3030205E2,1.1454794E3,1.6359838E3,6.448001E2,2.2067754E3,2.3009478E3,1.9593317E1,9.810257E1,1.1844244E3,3.7847176E1,1.9476895E2,3.55331E1,9.8258356E2,1.628958E2,3.1873882E1,1.6041099E3,2.1185469E2,4.3294543E2,1.8990748E3,3.0770065E2,1.9863141E3,3.1463373E2],"tree_param":{"num_deleted":"0","num_feature":"29","num_nodes":"31","size_leaf_vector":"1"}},{"base_weights":[6.959025E-3,-1.288274E-1,1.5956405E-1,1.7496817E-2,-2.4322972E-1,-1.4774947E-1,1.9299157E-1,-8.4526174E-2,1.735619E-1,-7.411438E-1,-2.055578E-1,-4.70546E-1,-1.19612E-2,1.4487596E-1,3.4894818E-1,-6.781265E-3,1.5101897E-2,6.8096886E-3,4.9558982E-2,-4.1107617E-2,1.9645704E-2,2.9272987E-3,-1.3115458E-2,-6.4780572E-3,-4.099164E-2,2.3015884E-3,-3.6320217E-2,5.315089E-3,1.6475929E-2,-1.1706471E-1,1.8179802E-2],"categories":[],"categories_nodes":[],"categories_segments":[],"categories_sizes":[],"default_left":[0,0,0,0,0,0,0,0,0,0,0,0,0,0,0,0,0,0,0,0,0,0,0,0,0,0,0,0,0,0,0],"id":30,"left_children":[1,3,5,7,9,11,13,15,17,19,21,23,25,27,29,-1,-1,-1,-1,-1,-1,-1,-1,-1,-1,-1,-1,-1,-1,-1,-1],"loss_changes":[1.9667107E2,8.4077E1,4.59349E1,3.511745E1,5.2718674E1,1.9234982E1,3.019635E1,2.6387867E1,2.650185E1,1.8501549E1,3.9311615E1,1.5371269E1,1.2878012E1,2.1917297E1,3.8273926E1,0E0,0E0,0E0,0E0,0E0,0E0,0E0,0E0,0E0,0E0,0E0,0E0,0E0,0E0,0E0,0E0],"parents":[2147483647,0,0,1,1,2,2,3,3,4,4,5,5,6,6,7,7,8,8,9,9,10,10,11,11,12,12,13,13,14,14],"right_children":[2,4,6,8,10,12,14,16,18,20,22,24,26,28,30,-1,-1,-1,-1,-1,-1,-1,-1,-1,-1,-1,-1,-1,-1,-1,-1],"split_conditions":[4.465252E-1,-5.663903E-2,-1.3188282E0,5.825036E-1,-1.427006E0,-5.436708E-1,1.0896409E0,1.7553085E-1,-9.660179E-2,1.5164265E-1,-1.161354E0,-1.7453732E-1,1.4834613E-1,1.5529416E0,-1.335092E0,-6.781265E-3,1.5101897E-2,6.8096886E-3,4.9558982E-2,-4.1107617E-2,1.9645704E-2,2.9272987E-3,-1.3115458E-2,-6.4780572E-3,-4.099164E-2,2.3015884E-3,-3.6320217E-2,5.315089E-3,1.6475929E-2,-1.1706471E-1,1.8179802E-2],"split_indices":[1,4,3,3,3,6,3,26,4,27,0,0,27,1,2,0,0,0,0,0,0,0,0,0,0,0,0,0,0,0,0],"split_type":[0,0,0,0,0,0,0,0,0,0,0,0,0,0,0,0,0,0,0,0,0,0,0,0,0,0,0,0,0,0,0],"sum_hessian":[9.489081E3,5.0213184E3,4.4677627E3,2.20364E3,2.8176785E3,4.379628E2,4.0298E3,1.3328116E3,8.708283E2,1.9687575E2,2.6208027E3,1.2895206E2,3.0901074E2,3.0811384E3,9.486615E2,1.1777733E3,1.5503833E2,8.3388336E2,3.6944958E1,1.8400674E2,1.2869006E1,4.6354996E2,2.1572527E3,6.594519E1,6.3006863E1,2.8667618E2,2.2334585E1,2.5499893E3,5.311492E2,4.2771473E0,9.4438434E2],"tree_param":{"num_deleted":"0","num_feature":"29","num_nodes":"31","size_leaf_vector":"1"}},{"base_weights":[1.623803E-3,-1.9825023E-1,1.177434E-1,-3.3750254E-1,-1.043405E-1,6.725915E-2,2.769151E-1,-3.4801432E-1,1.519776E0,-3.2547408E-1,-1.5256224E-2,-2.6493332E-1,9.588311E-2,-1.3702142E-1,3.2175097E-1,-1.3066351E-2,-2.6320709E-2,9.889637E-2,2.0749114E-2,5.5455677E-3,-2.0741714E-2,5.5052213E-5,-4.7584042E-2,-2.2818118E-2,1.4236751E-2,6.0158498E-3,-6.370861E-3,-5.3089596E-2,3.2704652E-3,2.8240676E-3,1.9320836E-2],"categories":[],"categories_nodes":[],"categories_segments":[],"categories_sizes":[],"default_left":[0,0,0,0,0,0,0,0,0,0,0,0,0,0,0,0,0,0,0,0,0,0,0,0,0,0,0,0,0,0,0],"id":31,"left_children":[1,3,5,7,9,11,13,15,17,19,21,23,25,27,29,-1,-1,-1,-1,-1,-1,-1,-1,-1,-1,-1,-1,-1,-1,-1,-1],"loss_changes":[2.2099193E2,4.5721527E1,4.837786E1,2.803389E1,4.1189896E1,4.3516018E1,2.6953476E1,2.1539871E1,3.2867565E0,2.346135E1,2.2849897E1,3.8337208E1,2.2994648E1,2.6727448E1,2.2424316E1,0E0,0E0,0E0,0E0,0E0,0E0,0E0,0E0,0E0,0E0,0E0,0E0,0E0,0E0,0E0,0E0],"parents":[2147483647,0,0,1,1,2,2,3,3,4,4,5,5,6,6,7,7,8,8,9,9,10,10,11,11,12,12,13,13,14,14],"right_children":[2,4,6,8,10,12,14,16,18,20,22,24,26,28,30,-1,-1,-1,-1,-1,-1,-1,-1,-1,-1,-1,-1,-1,-1,-1,-1],"split_conditions":[-6.196255E-2,-1.5656663E-1,1.3525277E0,1.8558134E0,-1.1352526E0,-1.3863311E0,-1.2936077E0,1E0,1.442542E-1,1.3560857E-1,1.6534722E0,1.0078236E0,1.4834613E-1,-9.3017346E-1,-9.761211E-1,-1.3066351E-2,-2.6320709E-2,9.889637E-2,2.0749114E-2,5.5455677E-3,-2.0741714E-2,5.5052213E-5,-4.7584042E-2,-2.2818118E-2,1.4236751E-2,6.0158498E-3,-6.370861E-3,-5.3089596E-2,3.2704652E-3,2.8240676E-3,1.9320836E-2],"split_indices":[1,3,1,9,1,3,0,21,28,28,6,6,27,7,3,0,0,0,0,0,0,0,0,0,0,0,0,0,0,0,0],"split_type":[0,0,0,0,0,0,0,0,0,0,0,0,0,0,0,0,0,0,0,0,0,0,0,0,0,0,0,0,0,0,0],"sum_hessian":[9.519694E3,3.4979849E3,6.0217095E3,1.4078247E3,2.0901602E3,4.5727876E3,1.4489219E3,1.4007096E3,7.1151023E0,5.9946265E2,1.4906975E3,3.6210934E2,4.210678E3,1.4140233E2,1.3075195E3,9.4431616E2,4.5639343E2,4.470782E0,2.6443202E0,1.0184879E2,4.9761386E2,1.466087E3,2.4610476E1,2.6870065E2,9.340869E1,3.795797E3,4.1488104E2,2.4631641E1,1.1677069E2,2.5663467E2,1.0508849E3],"tree_param":{"num_deleted":"0","num_feature":"29","num_nodes":"31","size_leaf_vector":"1"}},{"base_weights":[4.3356707E-3,-2.2484589E-1,9.621014E-2,-3.6256693E-2,-2.9774225E-1,1.9772284E-1,1.0090942E-2,-1.4728738E-1,2.2717665E-1,-3.7084725E-1,4.3266788E-2,8.794964E-2,2.6435834E-1,-3.75374E-2,1.90098E-1,-6.2038887E-2,-5.3265016E-3,1.7000679E-2,-5.3226184E-2,-3.3409897E-2,-1.4945716E-2,3.0735815E-2,-6.4069317E-3,5.0270646E-3,-7.238638E-2,1.5196984E-2,2.1131278E-3,-5.115023E-4,-1.6109606E-2,-1.1952168E-2,1.3065494E-2],"categories":[],"categories_nodes":[],"categories_segments":[],"categories_sizes":[],"default_left":[0,0,0,0,0,0,0,0,0,0,0,0,0,0,0,0,0,0,0,0,0,0,0,0,0,0,0,0,0,0,0],"id":32,"left_children":[1,3,5,7,9,11,13,15,17,19,21,23,25,27,29,-1,-1,-1,-1,-1,-1,-1,-1,-1,-1,-1,-1,-1,-1,-1,-1],"loss_changes":[2.0021336E2,3.7396484E1,5.9336384E1,2.2254118E1,4.8935867E1,2.276458E1,3.1499743E1,2.3713919E1,3.3250645E1,3.4365723E1,3.4097862E1,2.2929127E1,1.7024277E1,2.258202E1,2.3554747E1,0E0,0E0,0E0,0E0,0E0,0E0,0E0,0E0,0E0,0E0,0E0,0E0,0E0,0E0,0E0,0E0],"parents":[2147483647,0,0,1,1,2,2,3,3,4,4,5,5,6,6,7,7,8,8,9,9,10,10,11,11,12,12,13,13,14,14],"right_children":[2,4,6,8,10,12,14,16,18,20,22,24,26,28,30,-1,-1,-1,-1,-1,-1,-1,-1,-1,-1,-1,-1,-1,-1,-1,-1],"split_conditions":[1.0106275E-1,-1.3656455E-1,-9.757825E-1,7.715858E-1,8.882916E-1,-3.0991706E-1,1.0971336E0,-1.2208517E0,9.773189E-2,-1.4565772E0,5.062499E-2,3.0276957E-1,7.940846E-1,8.2245266E-1,7.495771E-1,-6.2038887E-2,-5.3265016E-3,1.7000679E-2,-5.3226184E-2,-3.3409897E-2,-1.4945716E-2,3.0735815E-2,-6.4069317E-3,5.0270646E-3,-7.238638E-2,1.5196984E-2,2.1131278E-3,-5.115023E-4,-1.6109606E-2,-1.1952168E-2,1.3065494E-2],"split_indices":[26,4,4,0,2,7,0,2,26,1,26,26,2,0,9,0,0,0,0,0,0,0,0,0,0,0,0,0,0,0,0],"split_type":[0,0,0,0,0,0,0,0,0,0,0,0,0,0,0,0,0,0,0,0,0,0,0,0,0,0,0,0,0,0,0],"sum_hessian":[9.506616E3,2.720031E3,6.7865854E3,7.587017E2,1.9613295E3,3.1143088E3,3.6722766E3,5.3405255E2,2.2464915E2,1.615017E3,3.4631247E2,1.1772556E3,1.9370533E3,2.9045488E3,7.6772754E2,1.8132326E1,5.159202E2,2.07279E2,1.7370153E1,3.1297528E2,1.3020417E3,7.931094E1,2.6700153E2,1.1686083E3,8.647364E0,1.6437416E3,2.9331177E2,2.6512468E3,2.5330214E2,1.0893002E2,6.5879755E2],"tree_param":{"num_deleted":"0","num_feature":"29","num_nodes":"31","size_leaf_vector":"1"}},{"base_weights":[-1.8765907E-3,-1.2223716E-1,1.3167243E-1,-2.4712004E-2,-2.538595E-1,-9.287808E-2,1.3357636E-1,-4.871083E-2,2.1920808E-1,1.1271429E-2,-3.1029278E-1,1.4983337E-1,-9.598103E-2,-1.9264997E-3,-3.863545E-2,-2.1598639E-2,1.9891066E-2,2.14008E-2,-1.5221936E-2,-7.295573E-2,-1.4670533E-2,9.509905E-3,2.5683823E-3,-3.279345E-3,-1.0341318E-1],"categories":[],"categories_nodes":[],"categories_segments":[],"categories_sizes":[],"default_left":[0,0,0,0,0,0,0,0,0,0,0,0,0,0,0,0,0,0,0,0,0,0,0,0,0],"id":33,"left_children":[1,3,5,7,9,-1,11,13,15,17,19,21,23,-1,-1,-1,-1,-1,-1,-1,-1,-1,-1,-1,-1],"loss_changes":[1.5163536E2,6.3685425E1,1.7184464E1,1.6700714E1,3.1597992E1,0E0,1.6690239E1,1.9109344E1,2.989745E1,4.9014805E1,3.333922E1,1.6577248E1,1.7616192E1,0E0,0E0,0E0,0E0,0E0,0E0,0E0,0E0,0E0,0E0,0E0,0E0],"parents":[2147483647,0,0,1,1,2,2,3,3,4,4,6,6,7,7,8,8,9,9,10,10,11,11,12,12],"right_children":[2,4,6,8,10,-1,12,14,16,18,20,22,24,-1,-1,-1,-1,-1,-1,-1,-1,-1,-1,-1,-1],"split_conditions":[4.316184E-1,3.4298858E-1,-1.6067005E0,1.429746E0,-1.161354E0,-9.287808E-2,1.5015666E-1,1.2812166E0,-6.7811054E-1,1.4183651E-1,1.3305572E-1,-5.361921E-1,1.636322E0,-1.9264997E-3,-3.863545E-2,-2.1598639E-2,1.9891066E-2,2.14008E-2,-1.5221936E-2,-7.295573E-2,-1.4670533E-2,9.509905E-3,2.5683823E-3,-3.279345E-3,-1.0341318E-1],"split_indices":[1,4,9,2,0,0,27,2,1,27,27,4,0,0,0,0,0,0,0,0,0,0,0,0,0],"split_type":[0,0,0,0,0,0,0,0,0,0,0,0,0,0,0,0,0,0,0,0,0,0,0,0,0],"sum_hessian":[9.431558E3,4.960768E3,4.4707896E3,2.850148E3,2.11062E3,3.343031E0,4.4674463E3,2.5955747E3,2.5457327E2,3.7054608E2,1.7400741E3,4.172315E3,2.9513147E2,2.5606206E3,3.4954147E1,5.4491585E1,2.000817E2,1.5956325E2,2.1098285E2,2.3963118E1,1.716111E3,2.9585603E3,1.2137545E3,2.916699E2,3.4615648E0],"tree_param":{"num_deleted":"0","num_feature":"29","num_nodes":"25","size_leaf_vector":"1"}},{"base_weights":[-2.4632728E-3,-2.6482818E-1,5.957788E-2,-3.0298612E-1,4.9218044E-1,1.6993958E-1,-1.9629486E-2,7.834324E-3,-3.8653123E-1,1.1402109E0,-5.6639697E-2,-4.1473484E-1,1.8127581E-1,-1.3788852E-1,7.457273E-2,-3.5012245E-2,6.9326335E-3,-1.6558792E-2,-3.694702E-2,6.429883E-2,-5.69262E-2,-5.0293755E-2,1.8115941E-2,-6.661763E-2,-1.1281146E-3,1.4217113E-3,1.1250571E-2,-1.1908359E-2,1.8681558E-3,7.497181E-3,-4.6612243E-3],"categories":[],"categories_nodes":[],"categories_segments":[],"categories_sizes":[],"default_left":[0,0,0,0,0,0,0,0,0,0,0,0,0,0,0,0,0,0,0,0,0,0,0,0,0,0,0,0,0,0,0],"id":34,"left_children":[1,3,5,7,9,11,13,15,17,19,21,23,25,27,29,-1,-1,-1,-1,-1,-1,-1,-1,-1,-1,-1,-1,-1,-1,-1,-1],"loss_changes":[1.5349872E2,5.224405E1,6.6672E1,4.4603516E1,3.0979628E1,2.1197083E1,4.9483685E1,3.3891884E1,2.6163162E1,1.47197075E1,1.9460691E1,2.1891819E1,2.0895393E1,3.4619232E1,3.1284378E1,0E0,0E0,0E0,0E0,0E0,0E0,0E0,0E0,0E0,0E0,0E0,0E0,0E0,0E0,0E0,0E0],"parents":[2147483647,0,0,1,1,2,2,3,3,4,4,5,5,6,6,7,7,8,8,9,9,10,10,11,11,12,12,13,13,14,14],"right_children":[2,4,6,8,10,12,14,16,18,20,22,24,26,28,30,-1,-1,-1,-1,-1,-1,-1,-1,-1,-1,-1,-1,-1,-1,-1,-1],"split_conditions":[-7.543009E-1,1.6201445E0,-9.757825E-1,-1.0938747E0,1.4181036E-1,9.236412E-2,-2.84842E-2,-1.0514128E0,-8.8514954E-1,-8.338039E-1,-1.5302914E-1,1.4239088E-1,-8.9909863E-1,5.269909E-1,1E0,-3.5012245E-2,6.9326335E-3,-1.6558792E-2,-3.694702E-2,6.429883E-2,-5.69262E-2,-5.0293755E-2,1.8115941E-2,-6.661763E-2,-1.1281146E-3,1.4217113E-3,1.1250571E-2,-1.1908359E-2,1.8681558E-3,7.497181E-3,-4.6612243E-3],"split_indices":[1,3,4,9,27,26,3,3,1,1,6,27,3,9,23,0,0,0,0,0,0,0,0,0,0,0,0,0,0,0,0],"split_type":[0,0,0,0,0,0,0,0,0,0,0,0,0,0,0,0,0,0,0,0,0,0,0,0,0,0,0,0,0,0,0],"sum_hessian":[9.428193E3,1.8024731E3,7.62572E3,1.7165482E3,8.592496E1,3.185765E3,4.439955E3,3.6383737E2,1.3527108E3,3.8907074E1,4.701788E1,5.9917034E1,3.125848E3,1.9684056E3,2.4715496E3,5.6058308E1,3.0777905E2,1.1707522E3,1.8195862E2,3.6977375E1,1.9297009E0,1.3968505E1,3.3049374E1,1.7222324E1,4.269471E1,6.958235E2,2.4300244E3,1.2517803E3,7.166254E2,1.7055566E3,7.6599286E2],"tree_param":{"num_deleted":"0","num_feature":"29","num_nodes":"31","size_leaf_vector":"1"}},{"base_weights":[1.0763472E-2,8.389822E-2,-1.9445902E-1,3.256408E-2,2.1540652E-1,-4.5263794E-1,-9.857178E-2,-3.346537E-2,8.692254E-2,-8.89473E-2,2.19022E-1,-3.0029404E-1,-6.475404E-1,7.4883753E-1,-1.2245645E-1,3.3780548E-3,-9.365225E-3,9.559893E-3,-1.6720168E-3,9.752589E-3,2.448043E-2,-4.43002E-2,-8.7384395E-3,-1.3683897E-2,-4.1265648E-2,-6.037998E-2,4.9423788E-2,-5.287107E-3,-4.925204E-2],"categories":[],"categories_nodes":[],"categories_segments":[],"categories_sizes":[],"default_left":[0,0,0,0,0,0,0,0,0,0,0,0,0,0,0,0,0,0,0,0,0,0,0,0,0,0,0,0,0],"id":35,"left_children":[1,3,5,7,9,11,13,15,17,-1,19,21,23,25,27,-1,-1,-1,-1,-1,-1,-1,-1,-1,-1,-1,-1,-1,-1],"loss_changes":[1.4049957E2,4.6583942E1,6.0843407E1,1.7823675E1,1.4359764E1,1.9574677E1,3.6416946E1,3.4866257E1,3.418817E1,0E0,1.2453896E1,2.7457306E1,1.913041E1,2.4325588E1,2.5074251E1,0E0,0E0,0E0,0E0,0E0,0E0,0E0,0E0,0E0,0E0,0E0,0E0,0E0,0E0],"parents":[2147483647,0,0,1,1,2,2,3,3,4,4,5,5,6,6,7,7,8,8,10,10,11,11,12,12,13,13,14,14],"right_children":[2,4,6,8,10,12,14,16,18,-1,20,22,24,26,28,-1,-1,-1,-1,-1,-1,-1,-1,-1,-1,-1,-1,-1,-1],"split_conditions":[3.4298858E-1,1.1719898E0,-1.1236584E0,-6.1814487E-2,-1.7107158E0,3.1987154E-1,5.185701E-2,1.4342237E-1,-6.960432E-1,-8.89473E-2,1.8444524E0,7.026534E-1,5.0305523E-2,6.6269064E-1,2.5009775E0,3.3780548E-3,-9.365225E-3,9.559893E-3,-1.6720168E-3,9.752589E-3,2.448043E-2,-4.43002E-2,-8.7384395E-3,-1.3683897E-2,-4.1265648E-2,-6.037998E-2,4.9423788E-2,-5.287107E-3,-4.925204E-2],"split_indices":[4,1,1,7,0,10,26,27,4,0,1,4,26,4,4,0,0,0,0,0,0,0,0,0,0,0,0,0,0],"split_type":[0,0,0,0,0,0,0,0,0,0,0,0,0,0,0,0,0,0,0,0,0,0,0,0,0,0,0,0,0],"sum_hessian":[9.359001E3,6.9004805E3,2.4585198E3,4.964026E3,1.9364548E3,6.6480206E2,1.7937178E3,2.241568E3,2.7224578E3,2.6156058E0,1.9338392E3,3.7456622E2,2.9023584E2,4.8338905E1,1.7453788E3,1.3533689E3,8.881992E2,1.4583986E3,1.2640592E3,1.7780494E3,1.5578976E2,6.503762E1,3.0952863E2,9.435119E1,1.9588464E2,4.8340263E0,4.350488E1,1.7133027E3,3.2076088E1],"tree_param":{"num_deleted":"0","num_feature":"29","num_nodes":"29","size_leaf_vector":"1"}},{"base_weights":[9.502111E-3,-1.9982575E-1,8.9590654E-2,-1.7854795E-1,-6.9219804E-1,4.7958244E-2,2.389376E-1,-7.770371E-2,-2.947538E-1,-3.719094E-1,-1.1773508E0,1.9344036E-1,2.1328643E-2,2.1084511E-1,6.69144E-1,-5.9210523E-3,1.878579E-2,2.441275E-2,-1.6420549E-2,-2.749381E-2,4.88552E-2,-6.571435E-2,5.908994E-2,1.09466715E-2,-4.6181753E-2,5.469542E-3,-2.8383692E-3,-4.766054E-3,1.2125417E-2,-1.3184992E-2,4.085399E-2],"categories":[],"categories_nodes":[],"categories_segments":[],"categories_sizes":[],"default_left":[0,0,0,0,0,0,0,0,0,0,0,0,0,0,0,0,0,0,0,0,0,0,0,0,0,0,0,0,0,0,0],"id":36,"left_children":[1,3,5,7,9,11,13,15,17,19,21,23,25,27,29,-1,-1,-1,-1,-1,-1,-1,-1,-1,-1,-1,-1,-1,-1,-1,-1],"loss_changes":[1.5720142E2,2.7061401E1,4.2156796E1,2.9141235E1,1.621088E1,2.054741E1,1.7723633E1,2.466858E1,3.0623215E1,1.6382145E1,1.5168003E1,2.3572464E1,3.0852041E1,1.3488724E1,1.2656075E1,0E0,0E0,0E0,0E0,0E0,0E0,0E0,0E0,0E0,0E0,0E0,0E0,0E0,0E0,0E0,0E0],"parents":[2147483647,0,0,1,1,2,2,3,3,4,4,5,5,6,6,7,7,8,8,9,9,10,10,11,11,12,12,13,13,14,14],"right_children":[2,4,6,8,10,12,14,16,18,20,22,24,26,28,30,-1,-1,-1,-1,-1,-1,-1,-1,-1,-1,-1,-1,-1,-1,-1,-1],"split_conditions":[-3.9322492E-1,2.3411264E0,2.723843E-1,1.437194E-1,3.0361095E-1,1.2323941E-1,1.900767E0,1.8216107E0,1.332683E-1,1.4083706E-1,1.0106275E-1,1.941499E0,-8.558942E-1,-1.3546479E0,1.3998912E-1,-5.9210523E-3,1.878579E-2,2.441275E-2,-1.6420549E-2,-2.749381E-2,4.88552E-2,-6.571435E-2,5.908994E-2,1.09466715E-2,-4.6181753E-2,5.469542E-3,-2.8383692E-3,-4.766054E-3,1.2125417E-2,-1.3184992E-2,4.085399E-2],"split_indices":[1,5,26,28,0,26,1,5,27,0,26,5,5,0,27,0,0,0,0,0,0,0,0,0,0,0,0,0,0,0,0],"split_type":[0,0,0,0,0,0,0,0,0,0,0,0,0,0,0,0,0,0,0,0,0,0,0,0,0,0,0,0,0,0,0],"sum_hessian":[9.374826E3,2.5938281E3,6.780998E3,2.4876858E3,1.0614243E2,5.3038125E3,1.4771855E3,1.3327686E3,1.1549171E3,6.4998344E1,4.114409E1,8.1965137E2,4.484161E3,1.3880369E3,8.914877E1,1.2236251E3,1.09143456E2,4.7040825E1,1.1078763E3,5.7946247E1,7.0520964E0,3.9305508E1,1.8385801E0,8.0214935E2,1.750205E1,2.1074124E3,2.3767488E3,1.2990602E2,1.2581309E3,1.2095461E1,7.7053314E1],"tree_param":{"num_deleted":"0","num_feature":"29","num_nodes":"31","size_leaf_vector":"1"}},{"base_weights":[2.9936787E-3,-1.9308336E-1,5.55139E-2,-4.1336238E-1,-1.18138745E-1,-7.433948E-2,1.2640955E-1,-1.9038E-2,-6.143745E-1,2.0658599E-1,-1.9090828E-1,3.1456219E-3,-2.4416015E-1,8.125133E-2,2.5112936E-1,2.9368386E-2,-1.795767E-2,-2.103456E-2,-4.895138E-2,2.404237E-2,-1.1297093E-2,2.3358993E-3,-1.6796317E-2,3.8799837E-2,-6.479631E-4,-8.219964E-3,-2.8863156E-2,4.678337E-3,-1.7193822E-2,1.3931883E-2,-2.2709941E-2],"categories":[],"categories_nodes":[],"categories_segments":[],"categories_sizes":[],"default_left":[0,0,0,0,0,0,0,0,0,0,0,0,0,0,0,0,0,0,0,0,0,0,0,0,0,0,0,0,0,0,0],"id":37,"left_children":[1,3,5,7,9,11,13,15,17,19,21,23,25,27,29,-1,-1,-1,-1,-1,-1,-1,-1,-1,-1,-1,-1,-1,-1,-1,-1],"loss_changes":[9.6645966E1,3.268335E1,6.815394E1,3.985234E1,3.503067E1,3.4407047E1,2.6948524E1,3.5446907E1,2.3112976E1,3.2323822E1,4.1720078E1,2.2370344E1,2.1671574E1,1.8445854E1,2.4814392E1,0E0,0E0,0E0,0E0,0E0,0E0,0E0,0E0,0E0,0E0,0E0,0E0,0E0,0E0,0E0,0E0],"parents":[2147483647,0,0,1,1,2,2,3,3,4,4,5,5,6,6,7,7,8,8,9,9,10,10,11,11,12,12,13,13,14,14],"right_children":[2,4,6,8,10,12,14,16,18,20,22,24,26,28,30,-1,-1,-1,-1,-1,-1,-1,-1,-1,-1,-1,-1,-1,-1,-1,-1],"split_conditions":[8.693659E-2,-6.957245E-1,-3.807109E-1,-6.225603E-1,-1.1410072E0,-2.5645283E-1,2.316922E-1,1.4083056E-1,6.362898E-1,3.1987154E-1,2.6306304E-1,-1.6700222E0,6.4486617E-1,1.5196656E-1,1.5316778E0,2.9368386E-2,-1.795767E-2,-2.103456E-2,-4.895138E-2,2.404237E-2,-1.1297093E-2,2.3358993E-3,-1.6796317E-2,3.8799837E-2,-6.479631E-4,-8.219964E-3,-2.8863156E-2,4.678337E-3,-1.7193822E-2,1.3931883E-2,-2.2709941E-2],"split_indices":[26,3,3,6,0,4,26,27,10,10,4,0,2,27,6,0,0,0,0,0,0,0,0,0,0,0,0,0,0,0,0],"split_type":[0,0,0,0,0,0,0,0,0,0,0,0,0,0,0,0,0,0,0,0,0,0,0,0,0,0,0,0,0,0,0],"sum_hessian":[9.382876E3,1.98172E3,7.4011562E3,5.019274E2,1.4797926E3,2.6137427E3,4.7874136E3,1.698427E2,3.3208472E2,2.7056995E2,1.2092227E3,1.7954867E3,8.1825604E2,3.5160012E3,1.2714126E3,6.0768707E1,1.0907399E2,2.182932E2,1.1379152E2,1.6551004E2,1.05059906E2,4.5853912E2,7.5068353E2,3.568794E1,1.7597988E3,6.613827E2,1.568733E2,3.4177725E3,9.8228546E1,1.2242701E3,4.714246E1],"tree_param":{"num_deleted":"0","num_feature":"29","num_nodes":"31","size_leaf_vector":"1"}},{"base_weights":[7.623686E-3,-1.1256177E-1,9.0860724E-2,-1.9248866E-1,-3.1986465E-3,1.7092608E-2,1.8542439E-1,-2.4681361E-1,7.65933E-2,1.0454497E-1,-1.5231857E-1,6.574113E-2,-1.2038413E-1,6.7220163E-1,1.6464774E-1,-3.6181484E-3,-1.710785E-2,-4.4000894E-2,1.02457125E-2,1.932538E-2,3.6362032E-4,-1.3832915E-2,9.196281E-3,-2.0577649E-2,4.003422E-3,-9.705613E-3,2.1527663E-2,4.192696E-2,-1.2634724E-2,5.076462E-3,1.6352516E-2],"categories":[],"categories_nodes":[],"categories_segments":[],"categories_sizes":[],"default_left":[0,0,0,0,0,0,0,0,0,0,0,0,0,0,0,0,0,0,0,0,0,0,0,0,0,0,0,0,0,0,0],"id":38,"left_children":[1,3,5,7,9,11,13,15,17,19,21,23,25,27,29,-1,-1,-1,-1,-1,-1,-1,-1,-1,-1,-1,-1,-1,-1,-1,-1],"loss_changes":[9.344578E1,3.3409332E1,3.8494373E1,3.2299072E1,2.596237E1,2.074995E1,2.4347832E1,3.0538963E1,4.5807926E1,2.5727222E1,2.8388634E1,1.570225E1,3.3024937E1,1.5392021E1,2.3755455E1,0E0,0E0,0E0,0E0,0E0,0E0,0E0,0E0,0E0,0E0,0E0,0E0,0E0,0E0,0E0,0E0],"parents":[2147483647,0,0,1,1,2,2,3,3,4,4,5,5,6,6,7,7,8,8,9,9,10,10,11,11,12,12,13,13,14,14],"right_children":[2,4,6,8,10,12,14,16,18,20,22,24,26,28,30,-1,-1,-1,-1,-1,-1,-1,-1,-1,-1,-1,-1,-1,-1,-1,-1],"split_conditions":[6.888609E-2,4.7259507E-1,3.306659E-1,8.882916E-1,1.4398518E-1,1E0,-1.6191555E0,-1.3656455E-1,-1.398447E0,7.772236E-1,4.8183548E-1,-1.6142157E0,1.4503663E0,1.4668003E-1,1.31112E0,-3.6181484E-3,-1.710785E-2,-4.4000894E-2,1.02457125E-2,1.932538E-2,3.6362032E-4,-1.3832915E-2,9.196281E-3,-2.0577649E-2,4.003422E-3,-9.705613E-3,2.1527663E-2,4.192696E-2,-1.2634724E-2,5.076462E-3,1.6352516E-2],"split_indices":[1,3,3,2,28,17,0,4,3,3,2,6,6,27,1,0,0,0,0,0,0,0,0,0,0,0,0,0,0,0,0],"split_type":[0,0,0,0,0,0,0,0,0,0,0,0,0,0,0,0,0,0,0,0,0,0,0,0,0,0,0,0,0,0,0],"sum_hessian":[9.338929E3,3.8211873E3,5.517741E3,2.2072683E3,1.6139188E3,3.1003623E3,2.4173792E3,1.8365667E3,3.7070175E2,9.371203E2,6.767986E2,2.29039E3,8.099724E2,9.76716E1,2.3197075E3,6.4965173E2,1.1869149E3,4.3152103E1,3.2754965E2,2.3960556E2,6.975147E2,4.942187E2,1.8257988E2,6.594075E1,2.2244492E3,7.1494403E2,9.5028336E1,8.286259E1,1.4809016E1,1.6716414E3,6.4806616E2],"tree_param":{"num_deleted":"0","num_feature":"29","num_nodes":"31","size_leaf_vector":"1"}},{"base_weights":[-2.6227415E-3,-2.2271626E-1,5.571248E-2,-2.619852E-1,3.0534923E-1,-7.3792204E-2,1.2031615E-1,-2.377819E-1,-8.817078E-1,8.100067E-1,-8.943017E-2,2.4887051E-2,-2.8577974E-1,2.8509598E-2,1.665658E-1,-2.0087082E-3,-1.6259668E-2,1.9286564E-2,-5.3641297E-2,-6.0168862E-2,4.778109E-2,6.358097E-2,-1.5872976E-2,3.0074667E-3,-1.2922189E-2,-2.1360068E-2,7.752392E-3,4.1404963E-3,-1.4927544E-2,8.7998025E-3,-1.9100871E-2],"categories":[],"categories_nodes":[],"categories_segments":[],"categories_sizes":[],"default_left":[0,0,0,0,0,0,0,0,0,0,0,0,0,0,0,0,0,0,0,0,0,0,0,0,0,0,0,0,0,0,0],"id":39,"left_children":[1,3,5,7,9,11,13,15,17,19,21,23,25,27,29,-1,-1,-1,-1,-1,-1,-1,-1,-1,-1,-1,-1,-1,-1,-1,-1],"loss_changes":[1.198102E2,4.0622375E1,6.172429E1,2.7094017E1,2.7125278E1,5.137714E1,2.0893417E1,3.027156E1,1.689798E1,1.8652565E1,2.4328892E1,1.6766195E1,4.8699535E1,2.9328701E1,1.6998184E1,0E0,0E0,0E0,0E0,0E0,0E0,0E0,0E0,0E0,0E0,0E0,0E0,0E0,0E0,0E0,0E0],"parents":[2147483647,0,0,1,1,2,2,3,3,4,4,5,5,6,6,7,7,8,8,9,9,10,10,11,11,12,12,13,13,14,14],"right_children":[2,4,6,8,10,12,14,16,18,20,22,24,26,28,30,-1,-1,-1,-1,-1,-1,-1,-1,-1,-1,-1,-1,-1,-1,-1,-1],"split_conditions":[8.693659E-2,1.553507E0,-4.360979E-1,8.41573E-2,1.4181036E-1,-2.964156E-1,-5.2518594E-1,-8.534657E-1,-9.757825E-1,-9.275283E-1,1.5664883E0,1.5068905E-1,9.83872E-1,-6.2054294E-1,1.6919745E0,-2.0087082E-3,-1.6259668E-2,1.9286564E-2,-5.3641297E-2,-6.0168862E-2,4.778109E-2,6.358097E-2,-1.5872976E-2,3.0074667E-3,-1.2922189E-2,-2.1360068E-2,7.752392E-3,4.1404963E-3,-1.4927544E-2,8.7998025E-3,-1.9100871E-2],"split_indices":[26,3,3,26,27,4,2,9,4,2,3,28,9,2,3,0,0,0,0,0,0,0,0,0,0,0,0,0,0,0,0],"split_type":[0,0,0,0,0,0,0,0,0,0,0,0,0,0,0,0,0,0,0,0,0,0,0,0,0,0,0,0,0,0,0],"sum_hessian":[9.329625E3,1.9541135E3,7.375511E3,1.8193254E3,1.3478809E2,2.4546902E3,4.9208213E3,1.7522739E3,6.705152E1,5.8699318E1,7.608876E1,1.6755922E3,7.790981E2,1.6490461E3,3.271775E3,5.378458E2,1.214428E3,8.652486E0,5.8399033E1,3.4690824E0,5.5230236E1,1.0261843E1,6.582692E1,1.490836E3,1.8475609E2,5.898876E2,1.8921053E2,1.414886E3,2.3416011E2,3.217151E3,5.4624226E1],"tree_param":{"num_deleted":"0","num_feature":"29","num_nodes":"31","size_leaf_vector":"1"}},{"base_weights":[1.4700732E-2,1.0629583E-1,-1.280034E-1,5.7441883E-2,2.2022508E-1,-3.4926602E-1,-5.3764302E-2,8.5980184E-2,-1.2533458E-1,7.552458E-1,1.9328621E-1,9.660284E-2,-4.1247776E-1,-2.9801095E-1,1.1881416E-2,3.0379968E-3,1.2115408E-2,-3.6682885E-3,-4.7007885E-2,4.5207284E-2,9.815046E-3,1.86074E-3,1.3129557E-2,9.425147E-2,-5.0272406E-3,-2.4659865E-2,4.979965E-3,1.2352146E-2,-2.178278E-2,2.2638513E-2,-5.705176E-4],"categories":[],"categories_nodes":[],"categories_segments":[],"categories_sizes":[],"default_left":[0,0,0,0,0,0,0,0,0,0,0,0,0,0,0,0,0,0,0,0,0,0,0,0,0,0,0,0,0,0,0],"id":40,"left_children":[1,3,5,7,9,11,13,15,17,19,21,23,25,27,29,-1,-1,-1,-1,-1,-1,-1,-1,-1,-1,-1,-1,-1,-1,-1,-1],"loss_changes":[1.2298537E2,3.1883522E1,6.0402836E1,2.0938602E1,2.4637077E1,2.6079994E1,4.4183044E1,1.3669701E1,2.2892834E1,6.654175E0,1.7712273E1,4.0924644E1,3.3505203E1,4.3901035E1,2.2316597E1,0E0,0E0,0E0,0E0,0E0,0E0,0E0,0E0,0E0,0E0,0E0,0E0,0E0,0E0,0E0,0E0],"parents":[2147483647,0,0,1,1,2,2,3,3,4,4,5,5,6,6,7,7,8,8,9,9,10,10,11,11,12,12,13,13,14,14],"right_children":[2,4,6,8,10,12,14,16,18,20,22,24,26,28,30,-1,-1,-1,-1,-1,-1,-1,-1,-1,-1,-1,-1,-1,-1,-1,-1],"split_conditions":[-1.3656455E-1,8.1530213E-1,-6.957245E-1,1.4746056E-1,1.332683E-1,-1.3360263E0,-1.1352526E0,1.5082211E0,-2.964156E-1,9.52708E-1,-5.5801964E-1,4.5759913E-2,8.804789E-1,1.3638686E-1,-1.0524371E0,3.0379968E-3,1.2115408E-2,-3.6682885E-3,-4.7007885E-2,4.5207284E-2,9.815046E-3,1.86074E-3,1.3129557E-2,9.425147E-2,-5.0272406E-3,-2.4659865E-2,4.979965E-3,1.2352146E-2,-2.178278E-2,2.2638513E-2,-5.705176E-4],"split_indices":[4,3,3,27,27,6,1,1,4,10,7,26,1,28,1,0,0,0,0,0,0,0,0,0,0,0,0,0,0,0,0],"split_type":[0,0,0,0,0,0,0,0,0,0,0,0,0,0,0,0,0,0,0,0,0,0,0,0,0,0,0,0,0,0,0],"sum_hessian":[9.406984E3,5.729647E3,3.677337E3,4.0111375E3,1.7185098E3,9.2292914E2,2.7544077E3,3.4698867E3,5.412506E2,8.108486E1,1.6374248E3,1.1453305E2,8.083961E2,5.8272723E2,2.1716807E3,2.9890542E3,4.808326E2,5.0982443E2,3.142618E1,6.354045E1,1.7544415E1,5.0399313E2,1.1334318E3,1.05219145E1,1.0401114E2,6.983508E2,1.10045296E2,1.17328354E2,4.6539886E2,1.08045876E2,2.0636348E3],"tree_param":{"num_deleted":"0","num_feature":"29","num_nodes":"31","size_leaf_vector":"1"}},{"base_weights":[1.0213101E-2,-8.320101E-2,1.1299116E-1,-1.5429237E-1,1.8745102E-2,3.434569E-2,2.1561907E-1,-2.951939E-1,-6.404133E-2,-3.3826151E-1,4.939466E-2,3.9435204E-2,-1.1489136E0,6.3063717E-1,1.9639121E-1,-1.2056269E-2,-5.1462807E-2,1.4884684E-3,-1.0805871E-2,1.11233005E-2,-3.166183E-2,5.9410385E-3,-5.422938E-3,9.1976405E-4,1.604641E-2,4.7393613E-2,-8.2803674E-2,3.966912E-2,-3.839481E-2,1.2681997E-2,2.2912093E-3],"categories":[],"categories_nodes":[],"categories_segments":[],"categories_sizes":[],"default_left":[0,0,0,0,0,0,0,0,0,0,0,0,0,0,0,0,0,0,0,0,0,0,0,0,0,0,0,0,0,0,0],"id":41,"left_children":[1,3,5,7,9,11,13,15,17,19,21,23,25,27,29,-1,-1,-1,-1,-1,-1,-1,-1,-1,-1,-1,-1,-1,-1,-1,-1],"loss_changes":[8.983825E1,3.5530033E1,3.595214E1,3.670826E1,2.2063332E1,1.5242643E1,1.529921E1,4.449675E1,2.5140614E1,2.6510477E1,2.0357626E1,1.4881745E1,1.3098279E1,1.9984478E1,1.5922951E1,0E0,0E0,0E0,0E0,0E0,0E0,0E0,0E0,0E0,0E0,0E0,0E0,0E0,0E0,0E0,0E0],"parents":[2147483647,0,0,1,1,2,2,3,3,4,4,5,5,6,6,7,7,8,8,9,9,10,10,11,11,12,12,13,13,14,14],"right_children":[2,4,6,8,10,12,14,16,18,20,22,24,26,28,30,-1,-1,-1,-1,-1,-1,-1,-1,-1,-1,-1,-1,-1,-1,-1,-1],"split_conditions":[1.6717982E-1,4.9855772E-1,3.306659E-1,8.693659E-2,-1.471484E0,1.6217968E0,-1.4814212E0,1.5247154E-1,1.312666E-1,4.637756E-2,1E0,1.7628393E0,-1.5886353E0,1.4872703E-1,-5.361921E-1,-1.2056269E-2,-5.1462807E-2,1.4884684E-3,-1.0805871E-2,1.11233005E-2,-3.166183E-2,5.9410385E-3,-5.422938E-3,9.1976405E-4,1.604641E-2,4.7393613E-2,-8.2803674E-2,3.966912E-2,-3.839481E-2,1.2681997E-2,2.2912093E-3],"split_indices":[26,3,3,26,1,5,9,28,26,26,23,2,0,28,5,0,0,0,0,0,0,0,0,0,0,0,0,0,0,0,0],"split_type":[0,0,0,0,0,0,0,0,0,0,0,0,0,0,0,0,0,0,0,0,0,0,0,0,0,0,0,0,0,0,0],"sum_hessian":[9.355274E3,4.900993E3,4.454281E3,2.8871482E3,2.0138448E3,2.5225464E3,1.9317345E3,1.1263694E3,1.7607789E3,1.5842865E2,1.8554161E3,2.5127053E3,9.841142E0,8.412679E1,1.8476077E3,1.0503337E3,7.603555E1,1.0895042E3,6.712748E2,5.4697758E1,1.0373089E2,1.2888219E3,5.665943E2,2.3389482E3,1.7375711E2,1.7474712E0,8.093671E0,7.574515E1,8.381643E0,1.3381357E3,5.094719E2],"tree_param":{"num_deleted":"0","num_feature":"29","num_nodes":"31","size_leaf_vector":"1"}},{"base_weights":[5.9183664E-3,-7.162755E-2,9.283754E-2,-1.5297295E-1,2.903595E-2,5.961996E-2,2.8285113E-1,-2.3954177E-1,-6.0560867E-2,1.07158735E-1,-1.5289705E-1,8.263484E-2,-2.0747292E-1,-7.139492E-1,3.1158257E-1,7.316155E-4,-1.5206016E-2,-1.4694498E-3,-3.6294997E-2,6.0877097E-3,-5.4828435E-2,-5.1743556E-2,-5.498473E-3,3.7015264E-3,3.4850966E-2,-2.19403E-2,8.229193E-3,1.5430532E-2,-8.254316E-2,-9.354695E-2,1.5991358E-2],"categories":[],"categories_nodes":[],"categories_segments":[],"categories_sizes":[],"default_left":[0,0,0,0,0,0,0,0,0,0,0,0,0,0,0,0,0,0,0,0,0,0,0,0,0,0,0,0,0,0,0],"id":42,"left_children":[1,3,5,7,9,11,13,15,17,19,21,23,25,27,29,-1,-1,-1,-1,-1,-1,-1,-1,-1,-1,-1,-1,-1,-1,-1,-1],"loss_changes":[6.2504417E1,4.0136078E1,2.7580723E1,2.167138E1,3.1160645E1,2.2902992E1,1.884842E1,2.2972458E1,2.7198818E1,2.7076529E1,2.4824345E1,1.8072052E1,2.5517717E1,1.8256754E1,1.1985626E1,0E0,0E0,0E0,0E0,0E0,0E0,0E0,0E0,0E0,0E0,0E0,0E0,0E0,0E0,0E0,0E0],"parents":[2147483647,0,0,1,1,2,2,3,3,4,4,5,5,6,6,7,7,8,8,9,9,10,10,11,11,12,12,13,13,14,14],"right_children":[2,4,6,8,10,12,14,16,18,20,22,24,26,28,30,-1,-1,-1,-1,-1,-1,-1,-1,-1,-1,-1,-1,-1,-1,-1,-1],"split_conditions":[4.465252E-1,4.024959E-1,1.2757065E0,-1.6585986E-1,1E0,1.4917588E-1,4.9787086E-1,1.3819385E-1,1.528828E-1,1.5403074E-1,-1.1453462E0,1.9786137E0,2.723843E-1,-2.568453E-1,-1.4141834E0,7.316155E-4,-1.5206016E-2,-1.4694498E-3,-3.6294997E-2,6.0877097E-3,-5.4828435E-2,-5.1743556E-2,-5.498473E-3,3.7015264E-3,3.4850966E-2,-2.19403E-2,8.229193E-3,1.5430532E-2,-8.254316E-2,-9.354695E-2,1.5991358E-2],"split_indices":[1,3,3,2,23,27,1,27,28,27,2,1,26,9,2,0,0,0,0,0,0,0,0,0,0,0,0,0,0,0,0],"split_type":[0,0,0,0,0,0,0,0,0,0,0,0,0,0,0,0,0,0,0,0,0,0,0,0,0,0,0,0,0,0,0],"sum_hessian":[9.271354E3,4.899968E3,4.3713853E3,2.7097334E3,2.1902344E3,3.7220261E3,6.4935925E2,1.3982776E3,1.3114557E3,1.5325585E3,6.576759E2,3.4273855E3,2.9464056E2,1.7524366E1,6.3183484E2,2.8344452E2,1.1148331E3,1.2537599E3,5.7695866E1,1.5150865E3,1.74719E1,2.9452324E1,6.2822363E2,3.3811538E3,4.623175E1,1.8156796E2,1.13072586E2,8.699849E0,8.824517E0,1.5275644E0,6.303073E2],"tree_param":{"num_deleted":"0","num_feature":"29","num_nodes":"31","size_leaf_vector":"1"}},{"base_weights":[5.5797705E-3,-2.520389E-1,3.9259743E-2,1.1259384E0,-2.771681E-1,-4.55907E-2,9.978972E-2,2.3087034E0,-9.248733E-2,-4.7131315E-2,-3.789507E-1,1.6624836E-2,-2.177866E-1,1.4926504E-1,-6.6691493E-3,3.295769E-2,1.3595612E-1,-5.8064144E-2,5.8678027E-2,1.730958E-2,-1.2570065E-2,-2.3309458E-2,1.7378399E-3,-2.1021117E-3,8.669249E-3,-1.7782604E-2,-2.6633923E-3,7.7681104E-3,-3.7018936E-2,6.553039E-3,-6.4212903E-3],"categories":[],"categories_nodes":[],"categories_segments":[],"categories_sizes":[],"default_left":[0,0,0,0,0,0,0,0,0,0,0,0,0,0,0,0,0,0,0,0,0,0,0,0,0,0,0,0,0,0,0],"id":43,"left_children":[1,3,5,7,9,11,13,15,17,19,21,23,25,27,29,-1,-1,-1,-1,-1,-1,-1,-1,-1,-1,-1,-1,-1,-1,-1,-1],"loss_changes":[8.08466E1,3.761714E1,4.2326786E1,2.8303839E1,2.4773392E1,3.6767147E1,2.5334248E1,4.929882E0,1.5655848E1,2.6273556E1,2.6503685E1,2.319883E1,2.0640572E1,1.7926971E1,2.5623976E1,0E0,0E0,0E0,0E0,0E0,0E0,0E0,0E0,0E0,0E0,0E0,0E0,0E0,0E0,0E0,0E0],"parents":[2147483647,0,0,1,1,2,2,3,3,4,4,5,5,6,6,7,7,8,8,9,9,10,10,11,11,12,12,13,13,14,14],"right_children":[2,4,6,8,10,12,14,16,18,20,22,24,26,28,30,-1,-1,-1,-1,-1,-1,-1,-1,-1,-1,-1,-1,-1,-1,-1,-1],"split_conditions":[-1.0772817E0,1.2870316E-1,-1.4445072E-1,-6.8320566E-1,1.8313752E-1,6.324925E-2,1E0,1.0321201E-1,1E0,-5.771983E-1,8.882916E-1,1.4770794E-1,-2.5523687E-2,2.261201E0,-7.3600596E-1,3.295769E-2,1.3595612E-1,-5.8064144E-2,5.8678027E-2,1.730958E-2,-1.2570065E-2,-2.3309458E-2,1.7378399E-3,-2.1021117E-3,8.669249E-3,-1.7782604E-2,-2.6633923E-3,7.7681104E-3,-3.7018936E-2,6.553039E-3,-6.4212903E-3],"split_indices":[1,28,3,0,4,4,21,4,21,2,2,28,1,4,4,0,0,0,0,0,0,0,0,0,0,0,0,0,0,0,0],"split_type":[0,0,0,0,0,0,0,0,0,0,0,0,0,0,0,0,0,0,0,0,0,0,0,0,0,0,0,0,0,0,0],"sum_hessian":[9.3156455E3,1.076326E3,8.239319E3,1.8492113E1,1.057834E3,3.4305908E3,4.8087285E3,8.929315E0,9.562798E0,3.2492978E2,7.329042E2,2.5207356E3,9.098552E2,3.2827246E3,1.5260039E3,2.2982545E0,6.6310606E0,5.2302113E0,4.332587E0,1.10830444E2,2.1409935E2,6.05166E2,1.2773817E2,1.8347987E3,6.859368E2,4.943946E2,4.1546063E2,3.2611992E3,2.1525255E1,7.159978E2,8.100061E2],"tree_param":{"num_deleted":"0","num_feature":"29","num_nodes":"31","size_leaf_vector":"1"}},{"base_weights":[1.46939885E-2,-1.4611009E-1,6.2147446E-2,-1.677244E-2,-2.4295007E-1,2.9268011E-2,1.9061434E-1,-7.181334E-2,3.5905856E-1,-5.46028E-1,-1.707547E-1,1.21156685E-2,2.5016874E-1,2.595987E-1,4.9547326E-2,-1.2847251E-2,4.203671E-3,-4.7264356E-2,2.526826E-2,-3.586763E-2,-1.1357862E-2,-4.3495195E-3,-2.3423584E-2,9.009304E-4,-2.5498206E-2,3.509241E-2,6.295025E-3,8.678665E-3,2.3130028E-2,2.8189236E-2,-1.1806601E-4],"categories":[],"categories_nodes":[],"categories_segments":[],"categories_sizes":[],"default_left":[0,0,0,0,0,0,0,0,0,0,0,0,0,0,0,0,0,0,0,0,0,0,0,0,0,0,0,0,0,0,0],"id":44,"left_children":[1,3,5,7,9,11,13,15,17,19,21,23,25,27,29,-1,-1,-1,-1,-1,-1,-1,-1,-1,-1,-1,-1,-1,-1,-1,-1],"loss_changes":[7.111595E1,2.6594273E1,3.0389338E1,1.8856672E1,2.6476501E1,2.1710361E1,1.4255463E1,2.2961037E1,2.2701035E1,1.2574219E1,2.4451956E1,1.640079E1,2.3085241E1,1.7111427E1,1.2887937E1,0E0,0E0,0E0,0E0,0E0,0E0,0E0,0E0,0E0,0E0,0E0,0E0,0E0,0E0,0E0,0E0],"parents":[2147483647,0,0,1,1,2,2,3,3,4,4,5,5,6,6,7,7,8,8,9,9,10,10,11,11,12,12,13,13,14,14],"right_children":[2,4,6,8,10,12,14,16,18,20,22,24,26,28,30,-1,-1,-1,-1,-1,-1,-1,-1,-1,-1,-1,-1,-1,-1,-1,-1],"split_conditions":[-5.820445E-1,-3.2713783E-1,2.723843E-1,-5.0008506E-1,1.1031696E-1,1.5142417E0,2.9163986E-1,-1.1120642E0,-5.761549E-1,1E0,1.1003163E0,1.4633749E0,1.200229E-1,1.0522895E0,-1.0723962E0,-1.2847251E-2,4.203671E-3,-4.7264356E-2,2.526826E-2,-3.586763E-2,-1.1357862E-2,-4.3495195E-3,-2.3423584E-2,9.009304E-4,-2.5498206E-2,3.509241E-2,6.295025E-3,8.678665E-3,2.3130028E-2,2.8189236E-2,-1.1806601E-4],"split_indices":[1,0,26,0,0,0,26,1,4,22,9,0,26,9,2,0,0,0,0,0,0,0,0,0,0,0,0,0,0,0,0],"split_type":[0,0,0,0,0,0,0,0,0,0,0,0,0,0,0,0,0,0,0,0,0,0,0,0,0,0,0,0,0,0,0],"sum_hessian":[9.317515E3,2.1226106E3,7.1949043E3,9.0931714E2,1.2132935E3,5.729692E3,1.4652124E3,7.938638E2,1.1545338E2,2.3215169E2,9.811418E2,5.3178315E3,4.1186032E2,9.8344806E2,4.8176428E2,3.625956E2,4.312682E2,1.1093367E1,1.0436001E2,1.5020114E2,8.195055E1,7.6671454E2,2.144272E2,5.259332E3,5.849958E1,8.7861435E1,3.239989E2,6.920398E2,2.914083E2,4.326773E1,4.3849655E2],"tree_param":{"num_deleted":"0","num_feature":"29","num_nodes":"31","size_leaf_vector":"1"}},{"base_weights":[-2.0579488E-3,-8.642415E-2,